། -6.877490 -4.073756 -0.478299 -1.389280 1.361018 -3.809024 -6.662325 -2.548845 -2.960516 -0.610636 -6.089409 1.610916 2.345382 1.876452 4.338491 -3.727454 1.384353 3.370742 0.909445 1.896283 -7.501978 2.805540 2.111413 0.395129 4.248244 -0.036627 -9.017362 -3.691247 -2.332300 0.284119
པ -5.058598 -3.169917 4.221339 1.994855 -0.880859 -1.450990 -5.066808 -0.840303 1.604899 -0.206718 -3.738054 1.717679 3.794688 0.611575 4.905335 -6.352063 -0.150752 1.762680 -1.203559 0.392161 -6.040550 3.763819 -0.534846 0.798376 6.573440 5.818047 -6.080928 -0.984421 -1.957109 -2.782059
འི 1.154888 -2.727778 7.149703 4.574042 -1.797898 -3.265415 -2.573246 2.144196 -2.435979 0.657620 -4.893142 -0.242575 5.159213 0.077054 6.034832 -6.696487 -0.680660 -4.276293 -2.989214 -4.649358 -6.472052 0.603248 0.309527 1.975064 3.671187 1.325415 -1.992129 2.475374 -1.916718 -2.728644
དང -2.670155 -3.131515 7.116235 3.718652 -1.344354 -3.781729 -4.345234 2.067285 -1.529920 1.898596 -4.279999 0.046242 4.093883 1.453052 5.020098 -5.844818 0.632808 -4.223142 -4.311143 -1.555133 -3.958683 2.411523 0.602312 -1.102381 2.276396 1.719117 -0.651068 4.134490 -2.569162 -2.610020
བ -2.056977 -3.485603 4.864347 2.467568 -3.774493 -4.571093 -3.181540 -0.590488 -0.620516 2.174145 -2.411340 1.791367 2.694159 -6.176139 7.423668 -7.021572 -3.139096 -1.457042 -1.660542 1.534860 -4.583054 4.843908 2.185934 2.854410 6.912643 -1.865763 -9.215882 -3.992813 -1.040171 5.819697
ལ -5.059799 -3.455533 9.086714 4.721968 -2.427758 -5.297294 -6.588366 1.532342 -1.465273 0.976939 -2.423621 -0.229356 4.183403 1.506596 5.293739 -6.463593 1.045773 -2.202367 -3.027748 -1.244992 -6.419115 0.888425 -0.427723 0.873500 4.905704 4.564986 -2.317284 3.748258 -0.026702 -1.072088
ར -5.276920 -5.059274 5.265506 0.846615 -0.237914 -4.704400 -7.818503 -1.646957 -4.019636 2.141491 -3.653388 -0.331477 4.811368 0.326477 6.885392 -4.775511 -1.989300 0.196321 -0.262351 -3.042428 -8.987266 0.314303 -0.818319 -1.285972 2.896761 0.522600 -5.373986 0.969976 -0.931915 -1.031638
ཀྱི -0.176044 -1.027337 11.801366 9.815495 -4.791475 -3.262786 -2.062564 3.567598 1.858786 3.032324 -2.710212 -2.362004 4.837753 2.132456 9.160924 -5.427689 3.098557 -5.724282 -7.234105 -3.088496 -5.965636 1.903164 -2.926201 1.447603 2.193948 7.395500 4.831662 3.854564 -4.017639 -2.522099
ས -0.201539 0.589401 6.297269 3.568519 -2.639212 -6.171944 -1.714193 -0.125347 -4.045978 0.028718 -0.837505 -3.121771 4.584564 1.510269 2.358354 -4.645805 0.176014 -0.122553 -2.956284 -2.473305 -10.451605 -0.654650 1.389628 0.107638 1.914521 0.447199 -3.881428 3.558660 -2.061290 -3.333963
ནས -2.776769 -4.993715 7.746205 4.393334 -3.073639 -2.408002 -5.055029 -1.236247 -3.146053 5.620320 -1.031287 3.851802 2.070550 2.392472 2.748067 -4.517238 -2.474030 -2.307988 -4.874372 -4.468873 -9.464169 0.703657 -2.649481 -0.585620 2.643507 3.495192 -4.084611 3.449883 -1.382212 1.636176
ལས -0.542070 -5.285129 2.659373 0.322988 -2.940460 -3.301756 0.399863 1.214822 -0.038627 1.131438 -8.989185 -3.337598 2.219093 2.785086 8.589139 -8.081903 -2.050798 -4.356149 -6.696124 -4.006706 -3.599695 5.479545 0.974566 -3.712274 4.893721 -1.724314 -1.713103 6.404453 -3.136307 -4.724220
མ -1.310507 -5.066843 9.839817 7.119956 1.671142 -2.843524 -3.631856 -2.766126 -0.512240 -0.725184 -3.408305 4.434241 0.754937 -0.209202 -0.816465 -11.849498 0.871077 3.031274 3.267632 1.093019 -2.082166 -0.579619 0.619002 -1.760592 7.916010 4.992436 -8.622462 -2.040808 4.647729 -0.413770
དེ -0.201130 2.712897 3.934330 4.109980 -5.038381 -4.768711 -2.534243 -1.073950 -1.820093 -3.467334 -3.811257 1.594389 2.201751 0.824148 3.784644 -4.617350 1.731349 1.922147 -3.161221 1.071408 -8.173748 1.248245 -2.610953 4.769238 6.011956 4.858600 -4.020362 -1.328921 4.304887 -3.380826
གྱི -2.253631 -1.313963 7.996208 4.321479 -2.950185 -2.940965 2.068918 4.446623 -4.616690 3.786187 -6.564765 2.099177 4.103867 2.180144 4.776114 -7.539253 0.943567 -6.865562 -8.328014 -4.557518 -6.771113 1.579948 5.123096 4.305979 3.917140 2.036170 1.664811 5.334815 -2.267012 -3.570024
དུ -4.744825 0.317448 6.934751 1.829207 -2.929139 -6.237518 -3.094189 -0.274667 -1.654858 4.959027 -3.827677 6.864954 3.335750 2.728995 4.439782 -6.364271 2.107891 -1.716289 -5.023785 -3.445533 -8.389639 2.480295 3.075886 1.974101 3.928285 -1.854597 -3.384605 3.296400 2.959682 -2.368669
གི 0.914744 0.260692 9.919136 4.460511 -3.522544 -4.668629 -0.401672 5.777837 -4.333517 -2.838458 -1.263249 6.545207 5.228520 -0.886294 1.448697 -11.072799 3.989890 -4.889369 -4.559541 -3.419948 -2.035401 2.394557 -2.273082 -0.176264 3.134251 1.101945 1.341931 9.526585 -0.554629 -5.910769
མི 4.420158 -3.044415 6.792406 5.502594 -9.203283 -5.611699 -0.070794 -3.212476 2.945354 -4.006127 -2.818799 -4.102995 -0.525409 1.418422 9.165644 -3.558199 4.192649 1.186291 1.738640 1.623628 -5.462975 6.870017 -3.458671 -2.498179 5.698854 -2.171196 0.162609 4.556659 -0.157672 -5.600013
བྱེད -8.599276 -7.524518 3.718309 0.969243 5.836942 -6.424131 -5.589302 1.235442 0.074513 2.460932 -9.975526 -4.197522 1.928025 0.348707 7.332274 -0.747407 1.006330 0.144722 -2.520429 5.383303 -4.893687 3.524288 0.422300 -1.077605 5.063166 8.131768 2.421340 1.996029 4.959411 0.465501
པོ -4.623840 -1.154293 4.156345 -0.588057 -2.162431 -2.082595 1.557350 3.381060 -0.255354 -0.659436 3.111976 0.002457 6.462298 -0.025871 6.613667 -1.695737 4.432170 -4.521909 -9.380044 0.354026 -4.252467 -0.864259 8.519144 3.979797 10.092704 6.013154 -8.489188 -2.306658 4.166953 4.621904
ཡོད -2.992875 -4.517842 2.841557 -0.217267 3.496599 -4.855389 -4.417292 -3.915791 -3.033008 -1.615250 -7.996620 0.873586 -0.360546 0.522848 4.567124 -2.365557 -0.827578 -1.412731 -3.373343 3.446944 -11.143711 4.148897 -0.776988 0.245570 4.893973 -0.832411 -7.956967 -1.928628 -1.473541 -0.302628
བྱས -7.437089 -5.282732 3.826745 -4.517833 4.756885 -1.564129 -9.297581 5.278383 1.037152 4.572000 -9.537114 -6.413216 -2.351357 -2.394669 4.128426 -0.126095 0.037252 2.962972 1.539455 3.166093 -0.063233 2.572682 -0.217891 4.505140 4.143798 5.456078 0.499702 4.068584 7.317807 2.780663
ཆེན 9.298118 -6.134879 5.045477 5.740680 -5.949868 -5.882427 0.546020 4.251842 -4.550125 0.486953 -5.095464 1.015918 8.061625 7.146533 -1.548114 2.883136 11.326321 -2.134915 0.503848 -4.275359 -3.432375 6.769961 -0.460028 -6.736561 -4.459668 2.990156 -0.514328 -2.431197 -7.815992 -4.063597
ཡིན -2.110745 2.838424 0.134523 -1.825129 2.862728 -6.285962 -5.496249 0.456536 -3.732348 -7.292547 -1.985510 0.261051 6.508366 1.949834 6.448611 -2.483910 1.134831 0.924004 0.980774 -0.780806 -6.133250 1.772089 -4.203008 -1.335551 9.299288 -0.378552 -1.408403 -0.848147 2.169283 -2.849301
ནི 2.209228 1.793922 5.626480 5.109220 -2.903356 -3.933036 -1.149496 1.611336 -2.090513 -1.679745 0.296953 -0.903804 5.558045 2.829934 2.921212 -7.823713 0.970308 -0.279756 -0.010629 -3.668052 -6.791912 -2.521766 -0.507682 1.871213 6.102464 1.288381 -1.638186 3.456845 -2.339912 -3.708052
ཚོགས 8.063578 -5.877315 5.688004 -6.233405 -4.809624 1.692272 8.802987 6.229382 3.896135 6.384940 0.586190 -4.536238 -4.751640 -4.238491 11.641622 0.013159 5.447814 -7.650145 2.705160 -4.233715 2.508761 6.520552 6.844243 7.665826 4.097190 -1.507027 -4.057989 8.929701 -6.244284 -0.818809
ན -6.103005 2.209083 1.734857 4.766416 -4.750009 -3.268595 -7.561032 -2.842536 -0.197271 -3.569764 1.473456 3.981420 2.802194 3.687749 1.654999 -6.726913 -2.186750 6.878929 2.476185 0.657720 -9.148533 -0.902050 -3.251451 4.651117 6.555338 2.452525 -6.744761 2.460904 1.307942 -0.615109
དོན 2.845628 -7.101782 6.587929 -6.385858 0.993928 1.083897 -2.319956 1.066480 -1.568001 1.574736 -8.474097 1.312327 3.413686 -3.105478 2.398676 -4.529228 3.601886 -1.952248 -3.584055 9.218589 -2.909074 6.777896 -2.387329 4.465505 6.463228 9.466041 1.994191 -1.088052 -2.986150 -3.418159
ལོ 11.909909 1.247902 8.186929 2.103402 -5.006244 14.030148 4.600775 -3.178786 5.415867 -0.970884 4.654006 -0.256778 -4.608194 -3.441618 3.120090 -3.685536 -8.678993 5.161429 5.716159 -9.924643 -1.016127 -4.452179 0.516219 11.030425 4.703477 0.710240 -4.126842 -2.515911 2.858273 4.680984
རྒྱལ 7.523108 1.768816 9.345448 0.452163 -7.704294 0.680355 -0.396291 6.137550 0.593719 2.938849 4.183518 -13.492778 4.336607 -3.594451 4.401917 -4.446774 9.901237 -4.481723 -1.286933 -3.197149 7.720594 -8.076622 -8.922535 -2.143205 1.335031 -0.386830 4.732121 2.540300 -5.226083 -5.549944
བྱ -4.454125 -7.036474 0.190379 1.976303 1.491038 -2.826235 -7.057142 -1.932649 1.875943 0.857401 -10.327841 -5.153157 6.772407 6.252415 8.758289 -2.189929 4.001448 5.902394 -1.964794 2.965358 -5.559766 2.752336 -1.114077 -1.054367 3.851172 8.249318 6.818242 -1.633389 2.143757 1.011457
རང 2.180931 4.996282 -0.423839 8.199493 -6.332113 -5.227285 7.371983 -2.950964 -4.112578 -1.692432 -4.067502 -4.195522 -1.655627 2.213064 4.143663 -2.041656 -4.068370 1.080390 -0.266967 5.443041 -16.286140 3.183466 0.754493 0.990083 3.852613 9.197353 2.388336 -1.810135 2.651537 -3.749498
གནས 3.463627 3.369661 4.103500 0.574427 -1.489988 -4.864699 9.110061 5.055031 -0.842508 1.948035 -5.258712 -1.399873 -5.487396 -2.185886 6.132093 -14.390826 -0.111207 1.471261 -3.842228 -3.331946 -0.003966 4.794856 -3.768773 -0.713741 9.906663 0.500439 -2.917313 -1.213300 -1.206661 5.631841
སུ -2.823847 0.960237 7.718029 4.524199 -3.342925 -6.326154 -8.306577 -1.553531 2.881405 7.363980 0.703294 -1.756361 5.774381 5.089474 7.664452 0.246996 4.763472 1.679641 -8.470892 -6.381060 -8.654269 -1.583467 -5.506481 0.908293 -0.511019 5.301988 -0.987473 -1.336583 -0.102495 3.179191
བོད 11.590374 7.894649 -5.148882 3.903314 -6.299028 1.804507 14.222231 4.856358 -4.261489 -3.012597 -5.082073 -2.430274 -1.904009 2.620370 2.784126 -5.552017 0.028090 1.853223 -1.899616 -3.437562 -8.485401 2.401690 -4.395298 2.017375 1.986869 -2.566421 0.170659 4.750664 4.982757 1.344065
ཏེ -6.950923 -8.040343 6.363087 2.596602 -0.382538 -3.467080 -4.090915 -3.228399 -3.584051 4.381796 -1.271448 4.272686 1.238443 3.902739 1.569101 -2.683161 -1.973160 -1.152916 -3.425688 -0.904473 -9.666612 2.676684 -2.361920 0.197518 2.075598 8.174652 -4.109869 2.498325 -7.904080 0.584540
དགོས -11.554173 -8.189747 1.752470 -6.669638 8.202246 -3.904093 -8.066537 0.567650 -2.451445 3.837512 -4.727467 -2.823318 6.352141 -6.397855 4.857790 -2.913408 -3.279256 3.670655 3.961598 9.923184 -2.576549 6.762428 -2.358346 -2.064084 4.988822 0.323984 -3.764127 1.300529 -0.702633 5.529411
ཞིང 1.254436 -0.557247 1.325212 -2.274580 -3.318805 -1.364473 11.944074 5.353444 -1.417939 -1.142175 2.611899 0.961633 2.568651 -5.358796 3.130869 -2.124605 1.916618 -1.611278 -9.704049 -0.503452 -0.555619 1.865886 2.056835 -4.278039 -0.370650 -5.900808 -5.309442 2.597982 -4.316620 1.697763
སློབ 7.487681 3.778501 -5.345954 -7.891164 4.589221 1.573036 3.122566 0.073347 0.348846 -4.759723 2.783649 -3.844531 3.435035 -1.176116 7.525471 -2.049366 -4.078914 -1.432733 -8.424116 -5.822619 -6.273995 3.633809 -3.230935 -3.462761 -3.410742 12.206786 -4.238728 8.990066 6.609383 -0.771303
ཞིག -3.330279 -3.976121 0.303250 -0.491365 0.443902 -7.358255 3.890950 -0.467231 0.738506 -5.092033 -3.967134 -0.970197 6.974861 -1.152620 0.814599 1.370672 -2.475719 0.139119 2.997063 2.537697 -10.524899 1.591361 2.674011 6.434440 4.212605 0.207725 -8.724414 -3.830271 -3.754284 -2.674358
མེད -3.217597 -1.792529 4.096219 5.555858 -0.555912 -10.357542 -5.334963 -1.648425 -1.805287 1.361463 -5.809040 0.112821 -0.431610 4.464419 7.586923 -4.843786 -1.426274 -2.872667 5.513637 4.150441 -3.230970 -1.345481 0.063607 -0.586119 8.957527 0.282870 -3.509053 -0.819108 1.310067 -5.213898
སྤྱི 3.474278 -2.446850 2.221358 6.414234 -16.768900 4.394839 -4.425500 4.124947 1.918201 0.501884 -9.380205 -0.070503 -4.988366 0.327434 1.201686 -4.460135 -1.444230 -7.990966 -4.960561 -0.822973 -1.318686 2.280890 -5.294676 -4.274635 -9.322681 2.254435 4.641821 -2.527656 -1.664012 -3.267813
མོ -4.564415 5.145724 -2.680820 -0.846378 3.233756 0.775562 3.726299 -0.569127 -4.453742 -3.436585 4.726299 2.312663 2.686525 -0.363442 3.877695 -7.401159 8.696888 1.781658 -2.972399 -2.918214 -0.335137 -5.093320 1.684565 2.739455 5.413719 0.956324 -11.190399 5.615099 8.164547 -0.335876
ཡང -1.221837 0.023392 3.588914 1.736378 -2.998685 -9.227045 -3.377311 1.282157 -1.353461 -3.445787 -2.051749 0.791406 2.739877 1.578117 1.343472 -7.162655 -1.704020 1.623897 4.532584 2.394866 -6.267070 -0.242877 -0.492233 2.447708 7.536299 0.216049 -6.357313 2.425432 1.226385 -3.167144
རྒྱུ -12.319766 -10.850694 3.209631 -3.972822 1.621699 -3.434039 -5.596794 -0.047497 0.743478 3.788072 -4.937781 -3.098650 6.258716 -8.432539 3.169497 -5.409102 -3.813900 3.280146 1.433040 5.789011 -1.251498 3.511661 -0.038593 2.039680 5.063997 0.785479 -6.132854 -0.293727 -3.177148 3.050770
རིགས 6.508257 7.953451 3.863348 4.409767 -3.979303 -2.077441 6.172829 8.850332 2.906581 -0.578589 -0.703853 -5.022467 1.034723 -3.474843 2.988635 -3.031422 -2.203886 -1.155393 -3.378107 2.074577 -7.172745 8.784535 2.328041 -1.029713 0.576500 -1.081923 -2.428304 8.816675 -2.029964 -4.503328
གཉིས 6.452413 1.211646 5.975338 -1.678509 -4.877015 0.342066 -6.312498 3.118342 -3.520819 2.339199 -4.490093 -2.091579 1.531523 -2.296650 2.793185 -4.918522 -0.194608 -1.964291 -1.691026 -3.412013 -2.387884 -0.836031 3.438859 2.152573 6.037722 -1.660530 -3.382541 1.827460 0.925184 -8.341272
ཀྱིས -2.256687 -2.295480 11.642235 10.114565 -5.911778 -2.923055 -5.213151 0.489951 0.515686 1.070526 1.806836 -1.500870 0.307231 3.938032 8.123200 -4.661291 5.658079 -4.442472 -4.492532 -0.586814 -5.456882 -1.455736 -0.720602 0.670785 0.952089 8.799104 2.770136 7.333643 -3.334928 -4.099097
གིས -0.976538 0.224190 8.482900 2.125747 -3.521653 -4.708011 -2.496894 4.337055 -7.035128 -4.409013 1.672963 6.958749 2.147362 -1.078886 -0.408805 -9.279556 7.254065 -4.891627 -2.366049 -0.486459 -3.943731 2.456889 -2.145311 -0.860439 5.016819 -0.498541 1.423039 13.355491 0.213496 -6.969420
འདི 3.346102 3.495516 1.430648 4.263992 -7.101066 -1.823529 -1.780203 0.390745 -0.687985 -6.301861 -2.630937 1.663261 2.057795 -0.598480 3.107966 -4.873833 4.331356 3.993974 -1.743640 -2.523366 -7.115775 0.279682 -2.106745 7.318344 6.715396 5.257372 -2.509685 -1.901393 3.525949 -3.465675
ཁང -0.418934 -8.175197 -4.186384 4.647706 1.459700 -5.566999 13.428961 -3.921362 10.453740 -0.976851 -4.056026 -0.972830 -6.349366 -1.234823 -6.740099 -2.544434 9.168764 -3.424361 -2.190206 -1.710926 -4.410248 -1.030503 7.260786 7.793540 -1.703335 2.277795 0.567449 8.221479 -6.562342 -3.474425
སོགས -0.928214 1.096761 3.887358 0.676447 0.125909 -2.725799 -0.201313 3.947640 -2.159475 -0.132885 -6.762393 -1.527977 3.624049 0.944181 3.360773 -7.089788 -0.900597 -4.263681 -2.648181 -1.072523 -2.489589 5.990590 0.832202 3.345599 2.416659 0.270555 -1.595463 3.054694 -1.811288 0.314976
བཞིན -3.924227 0.926605 6.391756 -3.764975 2.496525 -4.251144 -0.362910 3.629566 -0.384109 0.921266 0.690743 1.522847 8.200293 -2.471985 7.644523 -10.172007 -4.465766 3.596895 -1.138637 2.911138 -2.171523 -2.406171 -7.344558 -2.964488 3.391495 -0.352229 -4.009373 0.665548 -1.393474 0.068016
གསར -0.692303 -1.005619 -2.413324 7.483194 8.363655 -2.409254 -0.292916 1.965275 2.080792 2.182511 -7.679874 4.494203 4.020875 -6.166697 8.405011 3.057648 0.947954 0.446278 -0.537274 -7.385868 0.303874 1.006240 -11.762537 -0.289742 -0.955965 -3.288519 5.045325 1.768588 -4.681536 -6.866967
ཀྲུང 14.962508 -1.197819 7.315285 12.796118 -1.854348 5.763121 12.505309 8.784632 -6.660681 -0.226814 -2.096684 0.525729 -15.179459 -19.051754 1.090297 1.104042 5.918207 -1.469970 4.464781 10.791288 -3.697118 -5.305571 -3.801393 4.063664 -1.082070 -1.510598 5.407983 -3.280760 -12.464253 -3.110602
དུས 4.485633 1.635458 0.751674 -3.175855 -1.565648 -0.645823 6.737567 1.147950 3.194241 2.912735 1.439358 6.293254 1.122297 0.129084 -0.555340 -3.016900 -7.914592 1.007536 1.759341 -8.854809 -0.229380 -5.673391 -3.729694 4.399003 11.506093 -1.988661 -5.923104 -3.485250 3.051387 -1.357345
སྲིད 4.074132 -5.202967 1.347947 -9.545073 -10.256767 -5.508120 4.107666 0.390365 -4.921205 5.955336 -4.531712 -4.930302 3.851499 -4.986074 -0.636139 2.340599 0.726942 2.114844 0.850008 11.811356 -2.286283 7.463843 9.883640 10.390367 -7.037296 -2.900995 6.882887 8.159590 -11.321148 -6.248471
གཏོང -4.029993 -12.119852 5.601658 1.041033 8.246966 -2.365837 2.916296 -4.133515 2.485158 5.099778 -8.182874 -2.756696 -1.853759 6.171947 9.080439 6.328283 0.581509 -0.618433 -1.566596 8.985363 0.437791 -3.297723 -3.067859 -10.929867 -0.626580 -2.727578 -0.417077 -8.277456 4.965809 7.426769
གཞི 1.487435 -9.361024 4.569452 -2.666143 -0.946270 0.901575 -1.721192 -0.280934 11.381145 4.163804 -12.639330 -0.937924 7.782122 5.188014 -0.801611 -0.717172 -8.109012 2.331064 -2.062878 2.713303 -1.427059 5.188415 6.953765 6.194973 0.655520 6.889458 4.044042 -1.036888 0.882858 -2.837581
གཅིག 1.272973 -2.372042 1.447804 3.666067 -2.811061 1.312619 -7.816797 -2.953603 1.178435 3.415246 -2.520568 -6.001071 3.050076 -3.126298 -1.340545 5.227209 -0.733716 -1.475731 -3.684219 0.527410 -9.969430 -1.935992 1.058271 0.643520 8.454357 1.619395 -2.903662 -2.380682 -4.843130 -10.642998
གོ 9.901951 6.723146 -3.887653 0.305963 -11.951208 -5.614344 -8.458161 4.513003 9.856402 -2.996092 2.586703 5.578743 3.759608 4.487313 6.097284 3.715371 -4.699150 0.327893 -1.252506 -2.959068 10.420832 3.347305 2.259626 2.636350 2.962764 -1.361544 6.502337 1.614053 1.438913 -3.214191
ཁ 0.647957 3.946351 1.148063 8.124319 -3.399774 -4.966281 -7.087712 -4.896501 -0.375766 0.757136 -5.876385 -2.854142 -2.433616 3.307456 0.043677 -1.466819 -1.377737 -1.646978 -4.494566 2.984286 -4.191127 1.751023 6.570640 3.190087 6.835566 -1.638148 -2.925032 -0.364918 10.737664 2.415337
ཏུ -4.901901 1.347656 3.611746 4.348961 4.457754 -5.656317 -10.334352 3.304780 -0.651495 6.174432 4.114527 9.803414 7.527009 4.057370 4.544840 -3.578601 10.221262 0.049002 -2.268585 -3.204067 -1.772424 0.310224 -2.800606 -7.931736 12.266343 -2.162445 -3.113534 3.663401 5.012357 1.172360
རེད -7.564178 -6.151509 -1.441294 -4.290334 6.546023 -2.298788 -6.150358 -0.086713 -1.894892 -5.378379 -1.628838 4.664254 3.844657 3.398791 3.688601 0.688779 1.696280 2.384391 0.437571 -2.720150 -9.462040 0.713124 -2.875705 -4.329619 4.655202 -3.023744 -4.162422 -0.409959 -2.377246 3.365683
རིག 4.212238 13.408096 -1.213120 -0.415612 -0.425115 -1.837817 3.088239 4.327165 5.433587 -0.241716 -3.658969 -0.398173 8.841677 -1.443455 8.249645 -2.244712 -1.524956 1.738603 -6.656719 -5.176071 -7.677020 9.754078 -2.227056 8.202826 -9.301223 9.073079 6.222034 1.513220 -8.450755 -6.934217
བོ -6.156863 6.270734 0.656887 -2.196617 -1.512001 -1.906199 -0.323662 3.992957 -0.395492 0.400176 6.480318 -8.690421 5.009881 -2.091669 6.322097 -1.450747 2.252782 3.614008 -7.036470 -2.657768 -3.588762 1.079387 13.250967 10.407390 15.686949 6.227467 -0.895196 4.074248 6.202515 7.729252
གྱིས -5.243212 -1.960510 3.934674 1.746934 -3.381506 -0.947891 0.220338 3.269350 -6.929545 1.430214 1.091312 4.156484 0.251932 3.875475 3.412452 -4.974568 2.814984 -4.381514 -2.955456 0.070120 -4.996252 -1.051673 5.773085 2.237805 4.548162 2.326266 -0.404278 8.477448 -4.205202 -2.908288
ནང 4.719210 -1.226627 -0.649835 -0.408082 -0.831873 -0.656266 1.726541 -2.077322 0.713252 1.372143 -4.581351 -1.345189 1.366500 1.899177 -0.546756 -4.927974 2.531731 -1.607421 -3.361036 -1.818444 -6.971287 -0.181463 -2.799566 3.848237 1.223869 0.630495 -2.790060 3.038059 -1.586629 -1.435513
ཞེས -2.379040 2.953095 -3.659967 -0.577029 3.816028 -0.782163 -6.003754 0.689035 -8.300770 -3.038418 -3.659674 2.653546 7.054430 -2.066642 -0.121944 -7.885181 2.178214 5.201044 4.641519 -0.689420 -10.508805 0.653629 4.942312 2.697746 5.092930 -1.451160 -1.795607 -2.591779 -3.628720 -1.345470
ལམ 1.263453 0.111283 2.687297 -1.275648 4.614299 -1.040829 4.587354 -6.475713 -0.950408 11.126633 -7.020757 0.622761 7.454652 1.474206 2.321522 -3.552476 1.793414 -5.463790 2.354347 3.752402 -3.854674 2.515439 -3.949194 3.792901 6.453751 -3.102210 4.473737 0.291962 5.672956 -3.233895
བཅས -2.497361 -2.840822 2.592987 -2.132788 -1.052887 -1.118532 -2.257247 2.808224 -2.080008 3.060808 -5.435715 -0.570980 0.059986 -0.337132 3.740838 -3.300147 -2.480747 -3.075027 -2.183714 0.633155 -2.268055 4.929656 3.327729 -2.699680 1.523024 0.580378 -1.135087 1.287047 -2.211644 -1.023737
མང 4.045196 -3.831934 6.297948 4.262228 -8.289940 -1.634994 -2.008688 -1.376082 1.257658 -5.850150 -5.240569 -1.469506 4.275650 1.823172 5.953401 -1.797870 2.204826 -2.896011 -0.726653 -2.555692 -7.200072 6.615335 -7.453276 -8.811991 -0.966422 -0.093023 -5.815229 -4.104089 1.114393 -5.533004
ཆེ 8.100219 -7.519357 6.823379 7.128393 -0.736307 -12.419578 -3.251492 -0.547514 2.293002 -2.612099 -2.933422 0.576057 10.912874 6.802346 3.096109 3.924672 7.301466 -3.911725 -1.744936 0.731695 -0.207386 5.282823 0.876472 -5.369066 -2.239426 3.379730 -3.235391 -4.741144 -0.400150 3.208792
སོ 10.444165 3.325661 8.165368 -0.497117 -5.908895 1.930560 -7.482604 -1.352363 0.550033 -2.923183 -0.798227 -6.875340 -4.983666 -0.080443 9.137805 -6.148006 3.361081 11.147002 -6.030967 1.967499 -4.944361 6.544462 4.472925 -5.117970 -0.837302 0.994808 -1.564801 3.387005 -6.456636 -3.624786
ཚད -5.812816 0.613953 1.046842 0.064964 3.799558 5.588302 -5.744615 5.355384 2.446231 6.927351 -10.063097 -5.231849 7.958383 -1.541385 4.906802 -4.559876 -10.421666 -1.560221 -11.778414 0.421502 -1.856066 0.624240 -1.392614 -4.196676 1.082396 -6.351522 -8.586829 -0.760277 4.523112 3.669870
སྒྲིག -8.687115 -1.054205 -0.893933 -7.967626 6.556885 8.748070 0.831599 6.263527 3.595271 -1.811263 -7.033513 -1.416692 3.424323 -1.496456 -3.096607 4.823575 1.327453 -4.228325 -9.923715 5.067234 -9.864966 1.155778 -7.509520 -1.888999 -5.237446 2.226211 8.431229 1.647243 -1.873308 -2.559308
བྱུང -1.681129 0.381198 5.459377 0.330021 -2.343423 -1.463549 1.547103 1.901732 3.824800 -1.514472 -0.042581 0.736066 4.089114 6.012748 12.794604 -1.549745 1.296247 5.557872 -0.508038 2.817770 -1.379099 -4.233214 -4.745947 2.369427 3.079880 -1.678273 -1.602560 -2.246236 -1.982846 0.739001
ཁུལ 5.674066 5.939252 1.257848 3.651685 -4.013390 -1.231670 11.084420 0.053765 -0.245910 2.884372 2.009953 -5.569593 0.347646 -4.604556 -5.658911 -3.502970 2.169255 6.419544 -8.263735 -1.860821 -0.233163 5.087919 -3.924278 -9.955021 -0.586161 -3.728311 1.298160 1.637094 -3.955840 -0.732831
གསུམ 4.670856 -0.012602 4.573391 -0.028278 -2.372514 2.773024 -3.573805 -0.121166 -2.638939 1.868163 -3.555233 -0.517066 5.707448 -0.869405 0.930798 -3.124450 4.213096 1.363456 -2.983693 -6.698218 -2.200286 -1.857932 2.247724 1.387622 5.920319 -0.981124 -1.502115 -3.294052 -1.584193 -7.006665
འཛིན -0.537369 -0.373576 3.731177 -7.079717 5.737024 -6.777318 1.898595 1.028348 -2.024929 0.257649 -2.544660 -1.959609 2.265835 6.167224 -0.583235 -5.772567 0.511572 -6.347811 -5.775550 -4.924461 -2.856009 -0.989600 -1.515266 -7.211000 8.185946 11.970976 5.002738 -3.066191 -0.155587 -3.086116
ཕྱོགས 5.125613 1.310687 5.707938 -0.476529 -4.164710 -0.256513 -5.085599 4.973560 -1.778469 11.017116 -0.445657 -7.711260 -1.162497 -4.183150 -0.445695 -1.504375 -2.533002 -1.637745 -2.281563 1.093105 0.291094 2.905112 -0.990241 -1.950665 4.488599 0.741104 -0.647530 0.179927 -1.343426 4.144494
གྲོང 2.222614 8.375129 -1.527105 -5.359636 -7.399971 -4.417140 10.466338 -8.570597 2.422806 2.524166 5.304979 -5.920040 -3.814100 -4.728734 -8.943652 -3.316356 -11.601054 -6.609145 -10.036112 -13.048784 -4.095108 4.108437 5.506435 -10.059594 -0.982144 -6.978264 -6.163481 -0.337871 -10.109593 -11.393098
རྒྱས 1.106134 7.046507 6.127711 -7.156856 -4.099753 9.033903 -0.472727 -5.635954 -12.812966 6.543027 0.367685 7.772546 0.745901 -4.891126 18.886255 1.481203 -2.209873 -8.273353 -7.175859 5.773247 -2.925101 12.986085 -3.527580 -2.772705 -0.678815 -4.299516 2.908198 -9.007923 2.494146 6.678424
མཚོ 10.862254 6.957232 8.480264 2.524233 0.008662 -3.460016 11.585285 10.983426 1.609309 -2.514369 3.446668 0.523667 0.913302 5.199214 -8.239264 3.200195 5.076812 -6.232469 -5.869068 -8.237618 -3.494951 -5.013087 3.823429 -2.964028 -6.178891 1.465481 1.339531 -6.838658 1.532614 7.167609
ཡོངས 9.476810 -4.505686 2.112675 -2.421993 -12.352329 2.060323 4.492023 3.288049 -3.826542 6.987035 -8.578941 -1.960877 -7.252721 7.126441 5.968666 2.011318 -4.914804 -0.694127 -1.725965 2.808372 -3.052793 4.034479 6.542458 -0.868674 -5.230502 0.761454 1.536733 2.607436 0.939470 0.042622
ལག -3.953106 1.100139 -8.538866 -5.156516 5.034368 1.770366 -6.373920 -2.363754 1.136749 10.989738 -10.351397 -10.272161 7.755669 5.078892 -0.606411 2.841231 -1.074168 -7.863234 -4.245998 2.375959 -7.943122 10.229554 0.646505 1.772690 -2.180063 4.548362 -4.395524 6.826430 -0.680035 -4.989598
དག 0.450998 -0.497675 -0.944104 0.452985 -1.206224 -4.973406 0.436523 -0.126355 1.491418 -2.484740 -2.625951 -5.843198 4.300996 0.850767 0.937735 -3.968049 -1.255487 -1.052637 3.532502 -0.086022 -8.108007 0.401816 -3.671707 5.458062 9.402052 4.060907 -3.368256 1.410476 -3.255788 -4.250587
ལྟར 1.414547 -0.332768 2.344129 -3.065449 4.017916 -6.736016 -2.236784 0.078287 -1.419184 -0.781781 -3.690217 1.453788 2.325940 4.603088 1.564740 -8.484025 -3.987137 -0.258941 5.461429 1.637130 -8.447781 -5.717879 -4.904764 4.634521 1.710777 -0.306996 0.163184 2.128351 -5.225971 -1.155185
ཆ 2.876558 0.158933 6.257289 2.179740 4.375446 3.535398 3.141084 -0.900295 4.959099 -2.536060 -7.136842 1.215864 3.132587 2.486918 4.693084 -6.509050 -0.875628 0.911407 -2.101066 8.308529 -7.320870 2.748769 0.405505 4.109736 6.138551 -3.699444 -1.579941 2.192853 7.673589 2.387569
ཆོས 11.136088 6.781957 0.811080 -0.526553 -2.950409 0.400732 5.187059 1.604816 -3.121058 -1.153332 -2.196626 3.469153 1.666517 0.524839 11.879325 -6.187996 -4.887355 -10.042025 2.737655 0.424530 -5.595661 4.825813 -1.615520 8.227157 4.835013 7.254890 -2.101460 -2.565148 -4.247163 -4.027365
སྔོན 1.575579 2.844361 -7.769576 -0.640450 -5.178746 0.890984 5.748912 -2.781460 -8.707788 5.240660 -3.048179 -3.600978 7.000484 5.104557 4.491756 0.846284 -0.202374 7.021239 0.674522 -3.469257 1.221403 2.198854 -8.923291 -1.645785 1.065251 -8.102141 -5.046258 6.390311 -2.441567 -6.711927
ལྡན 2.193511 0.743657 5.532756 7.509986 2.194520 -4.137827 3.836558 0.035075 -0.747512 -1.955670 -3.127170 2.675819 4.812683 2.986075 13.981603 -3.661427 -3.231809 -5.325129 0.389406 -2.601301 0.873624 5.066561 0.626602 -2.942617 1.933618 5.344058 -0.291521 -2.980282 -3.364158 -3.338320
བུ -6.365436 0.574088 -3.771569 8.339086 -3.290933 -9.397338 -9.274190 2.335924 1.262796 -4.610528 -2.316289 3.360905 7.277036 -8.256335 -7.765785 -8.638109 -2.903304 -0.984555 -2.435522 -4.115798 -0.060728 -2.190306 -0.793467 1.038458 4.854548 7.643669 -8.840423 -8.288543 1.519798 0.228383
ལྟ -5.225561 -0.524927 5.560771 -4.364293 11.147678 -4.292241 8.034602 -10.133719 1.246057 0.758707 -4.191835 -3.502433 3.843438 8.239069 5.386255 -8.165033 2.811865 5.685772 5.072389 -2.897465 -1.358444 -2.555560 -3.908545 3.329952 4.023747 3.622593 3.016719 4.383672 0.934981 -7.323439
འགྱུར -3.283724 3.262953 2.235902 1.079670 -2.981785 0.584851 -0.099632 -0.867624 4.388080 -2.185829 -5.516528 8.130425 -2.133126 0.404755 6.517264 -3.455479 -5.145310 -3.013987 2.306515 6.838066 -3.036289 4.210119 -7.782250 -3.594385 4.875808 -6.745310 -3.191709 -12.019125 -6.902334 -4.085358
ཡུལ 1.924780 5.979745 6.775731 -1.084779 -2.213336 -2.055317 8.247971 -1.753461 -0.965045 3.321315 -0.920160 -5.704746 1.005831 -6.634057 0.776604 -10.790658 -1.027627 3.785438 -6.373493 -3.211333 -10.165897 2.115842 -0.873271 3.315053 1.632231 0.473301 -3.193232 -4.099170 -5.737833 2.081827
ཤེས 0.918710 4.390566 3.687725 -1.306493 7.718794 -1.850736 6.774054 5.773551 -0.267186 5.658512 -1.193895 -2.194561 -0.095479 1.216767 10.165110 -6.278074 0.297653 0.053577 6.355132 6.460658 -2.355724 5.421599 5.873296 0.721602 9.216074 3.161709 -3.624829 -0.591290 -4.979465 1.700845
སྐྱོང -6.952022 5.665741 5.793478 -6.584765 -2.632790 2.775433 8.732614 4.002488 0.788379 -2.277116 5.688415 -3.785733 3.156461 4.005582 4.360521 -1.047021 -0.221046 2.737408 -10.415022 5.895426 -1.526128 3.816392 -5.170025 -8.914050 -4.201733 7.239621 12.913413 4.517864 -5.436405 -1.319329
འབྲེལ 1.101614 -3.330185 2.121530 -6.795791 -3.057900 -3.604831 -5.204551 2.203040 8.464323 2.237711 -7.358783 0.520676 -3.570628 1.945049 3.739291 -6.657361 1.673833 -3.609800 -7.688198 2.073319 3.374299 -4.258021 4.981015 -1.484193 -0.804270 1.543952 3.469632 -2.505767 -4.059063 -5.434525
རིམ 5.873402 -0.414296 3.975406 0.882759 3.736099 6.085805 3.541148 5.143078 -5.959598 4.790370 -9.257014 -1.525154 -0.370798 -4.593241 5.124240 -1.715303 3.361943 1.430778 -6.574745 1.399275 -7.935493 2.499840 -2.691031 -3.749422 -2.507798 0.338028 -1.332849 -1.371137 0.743796 -0.652960
དམངས 2.552049 4.311548 0.866948 -5.747992 -8.731353 -1.556379 5.705606 8.526288 6.916401 1.088619 3.547285 -6.441473 -5.231071 -6.670413 3.658048 1.193058 4.373155 -10.063133 -5.940116 1.090005 -6.639327 3.268740 4.373982 -3.279542 -4.071779 -3.332297 3.175678 9.674323 1.010681 -4.071871
འཛུགས 2.231086 -8.004436 2.599376 2.466553 4.984312 -9.403280 4.088996 2.240904 0.152900 2.117861 -15.148896 -1.687795 0.458900 -7.461203 -2.334788 2.423605 -11.535292 -11.879328 -0.803544 -4.506258 -2.142638 5.185379 4.972390 -5.088664 -5.921950 3.532172 9.607956 -0.191904 2.731554 -8.565138
རྣམ -0.226049 0.638974 -0.441961 6.161554 -3.013032 0.090875 -2.606784 0.184369 4.257633 6.116192 -9.922259 0.346456 2.197452 3.651385 4.477528 -3.388490 3.448487 1.737261 3.965434 -1.287846 -4.894514 8.968619 6.232308 4.967014 6.916155 2.275952 -1.438040 -0.724210 1.814099 -4.547810
ཏང 7.957690 -5.758608 -8.788987 -1.998844 -8.509844 -0.406798 7.210752 2.703856 2.826136 -5.134386 0.177661 -2.729392 -3.767930 -6.826187 -2.703455 6.836599 6.624660 3.084492 0.635730 2.998333 -0.541375 -1.073070 2.596733 -6.711721 -2.385192 1.921145 7.938573 0.361900 -7.800427 -10.978469
ཐོན -0.974614 1.065255 6.677847 5.967791 -1.956440 -1.660512 7.160063 4.828350 4.161939 -7.120404 -8.759981 -5.392322 -2.073773 0.208046 7.228229 0.304209 -4.703442 -1.819135 -12.310103 -3.408491 1.221931 6.883800 -0.220336 -2.721113 -4.383927 2.736922 -1.227775 -2.692199 0.995486 1.872690
རིང 11.132777 -1.835867 2.955513 0.065814 -2.190315 2.709984 4.261265 -5.735765 -4.458400 2.247417 -0.485698 0.745965 -0.478505 5.197555 5.425358 0.046251 -1.843924 -9.448198 9.317163 -2.757473 -1.101106 -5.355469 -8.040111 2.772556 4.933368 1.404839 1.370835 -3.647605 4.400758 -1.570456
ཅན 0.712482 2.003294 5.830389 9.914528 3.078896 -1.315039 0.832805 -1.021417 0.267087 0.615544 -3.616055 -1.101768 7.375190 1.776294 4.837977 -4.743464 2.405701 -4.126824 1.555711 -1.454357 1.797945 3.144903 -4.955622 -2.023867 6.606641 0.921909 1.358150 -2.121366 -4.449964 -5.949704
ཞིབ 0.463910 -3.841336 -4.673174 -12.425178 1.689704 -8.612981 -2.010767 3.959726 5.339736 -1.355247 -7.985891 4.983005 2.497449 0.344798 -9.790395 -4.110208 -6.199022 2.731567 -7.624095 -2.960373 5.311290 10.528282 -6.603767 6.049452 0.405163 9.098251 -2.901086 3.788730 -8.531452 0.431846
གང -5.696650 -1.539197 1.626764 3.236927 -2.818223 -7.054358 -1.335521 -2.100150 2.016434 -5.975799 -1.042643 -2.379746 2.563790 1.503589 5.520680 -2.698771 -0.392934 -0.935844 0.034801 2.835311 -6.560688 3.728949 -6.519102 4.722318 8.782737 6.263830 -5.027629 -0.719615 0.939704 2.905414
ལུགས -5.401582 2.573039 2.988714 -2.735766 -10.293125 4.066648 0.661312 11.581747 0.157923 0.927108 -2.680940 -0.597387 5.444026 -6.313772 4.466935 -2.867568 -2.091941 -8.399252 0.606236 -2.848777 -0.563032 8.239614 -5.096413 5.720015 1.504000 5.686744 7.758993 4.272789 0.936664 -3.309717
འཕེལ -2.843959 -7.473014 -1.435890 7.562459 -7.840022 -11.707845 3.613124 9.330418 11.341058 13.929094 -8.171787 -4.704813 1.187562 4.488027 9.041718 -1.294493 -9.374693 6.758532 3.534150 -12.857131 9.715737 -2.502882 1.986957 -7.539344 -4.243710 -0.305586 -3.372059 -4.293627 -7.167671 0.320810
སྐབས 8.226315 -0.889421 5.241116 -2.032692 -5.279394 1.608566 2.272074 6.331026 -2.416629 4.830284 -1.999734 3.993862 -1.271803 -3.696622 -1.959990 -1.984537 1.843414 3.901540 4.404180 -1.781574 -5.710523 1.045535 -0.697980 3.456629 0.021814 -1.877676 -5.399749 -0.775897 -2.460171 -1.334364
ཉིན 6.617012 -4.477783 -5.777857 6.744844 -0.803299 5.756066 -4.781758 -0.344993 0.483372 8.559709 -3.098282 4.779224 -6.833261 -2.241357 -9.204327 0.424119 -0.845587 2.539182 7.583003 -4.127404 1.150975 -9.041685 4.985541 1.965320 -1.805277 -3.820719 -7.384761 0.041575 2.423338 -0.745108
རྒྱ 3.669785 0.108972 -6.138452 5.128361 -5.858576 4.445724 -0.053752 0.665675 -2.966385 1.834088 -1.644346 -3.329513 5.595497 3.572144 8.292931 -2.154104 6.142080 2.226629 -1.454273 4.266768 1.388995 0.559007 -1.853595 0.981121 -0.851937 -6.224667 -8.600465 6.068048 3.775649 4.689216
ཆུ 0.615691 3.576617 3.011628 2.075691 4.074150 -2.175644 6.606305 -8.165988 -3.610518 -0.767249 -5.196450 -1.946970 5.138384 5.245440 -4.131926 -6.610210 -6.981734 2.965775 -8.446477 -1.604460 1.195010 -3.250808 0.831721 -3.001664 1.321144 -3.054463 -2.809770 -5.136153 4.709664 1.458773
རེ 1.996613 -4.417469 1.873461 0.868574 0.082659 1.017414 -5.941597 -6.177881 2.063155 -8.705035 -2.087204 2.284598 0.410547 -4.379650 2.029480 -3.402758 -2.304044 1.718528 -0.904526 1.462204 -11.294805 -4.121660 1.248656 0.800998 2.516236 -1.741492 -4.630171 -1.619628 7.051052 -0.606177
མཉམ 0.494829 -1.451732 4.794883 2.887278 -4.102223 -5.101025 -3.273892 -2.773505 2.831038 7.489100 -7.788470 -2.644381 -6.139342 -5.529573 6.882647 0.097081 2.063447 -4.794178 -5.482015 2.219264 1.878944 6.234679 -1.691014 0.529869 -3.721533 2.126494 -2.719315 -0.025386 -3.399820 -7.127676
ཟླ 6.800375 -0.467519 -2.994895 6.196955 -3.439656 11.810004 -4.366743 -3.777969 2.089393 1.712081 -0.568325 -1.345275 -4.644775 -1.277794 1.030028 -1.814902 -3.834697 5.171732 9.363410 -6.372686 -0.744979 -11.897455 0.591604 -1.657512 -0.972735 -6.008739 -1.577089 -3.173696 4.312490 -2.802809
ཚོ -0.635010 1.776373 5.805567 8.680629 -2.685556 -3.339558 -1.285032 -1.795063 -0.936466 -1.896351 4.809482 -3.079028 0.244054 -9.156188 0.833287 -1.978577 10.156744 7.891020 4.040038 -0.565903 -5.308097 -1.208201 2.344204 -2.230572 0.057665 -0.095890 2.667855 5.235605 10.783453 -1.443427
བདེ -8.970472 1.530682 5.443646 -1.849643 -1.499337 -5.012876 10.931108 -1.320868 -4.897157 3.561545 0.153599 -8.355908 -0.967346 -2.852819 12.407741 -2.309674 -0.747572 -11.637015 -3.753073 2.547784 -4.589975 -6.785786 -4.809914 -2.114166 -10.445930 -0.734874 -3.026419 -1.164711 -3.014527 -1.801501
སྤེལ -3.681864 -3.639082 -4.218369 -3.299901 3.932015 -0.866574 1.931169 1.531318 1.540699 4.983517 -8.922800 2.450650 -2.534709 2.979355 9.167325 5.578835 -0.054996 1.481517 -2.056334 -2.168614 1.796931 8.429638 1.993389 0.596916 -1.627512 3.638658 2.060886 -2.940921 1.284495 5.558401
ཀྱང -1.901517 1.615246 5.501638 2.213538 -2.419457 -4.669266 -3.592747 0.677763 2.069465 -4.366357 2.824377 3.330194 3.725327 3.149932 1.782255 -3.627894 2.080327 1.633918 1.243115 3.212291 -6.822964 2.086296 -3.735230 0.003097 7.357330 3.799245 -5.449434 0.582264 0.539204 -1.612917
ང 5.141008 3.601830 3.610110 -0.091179 -6.269547 -9.355387 1.192017 -5.250675 1.791002 -6.185584 7.014617 3.050697 -1.256756 -2.805257 -2.224390 -4.323618 -5.061007 3.028707 2.567932 -0.344428 -3.563292 -4.100856 0.559545 -1.507093 5.632978 4.059073 -8.495358 -2.884001 1.659236 -8.251842
གསོ 3.804493 -5.903442 -0.351439 7.440176 1.652075 -2.930822 1.863581 5.314945 0.118745 0.655594 -8.475142 -0.333663 4.500979 -0.257381 1.043252 -6.952711 -4.790164 4.264187 0.513578 0.738555 3.407091 9.250922 -0.323079 -7.704135 1.417069 11.283843 -0.879396 4.537706 5.355642 1.328370
འགན -5.265934 -4.321112 4.269353 -11.816381 0.857529 2.772684 -4.092919 -5.097753 6.773653 -3.276813 1.855663 -9.557299 4.368188 -0.489761 4.565173 -0.481970 1.481934 -3.639313 -9.086669 21.428665 0.948796 6.028592 -1.526190 -3.304039 -1.176451 9.695880 0.613547 2.814280 -2.321898 -0.400775
“ 4.209143 2.384993 1.105627 2.006745 -0.126224 0.013833 -0.231305 -0.974536 -2.023505 1.472975 0.463183 -1.925253 5.044141 -2.080246 -3.104627 -1.753064 0.009726 1.024073 0.481440 -2.619577 -4.276539 -1.463404 4.686810 -1.875560 2.786513 -1.779102 1.921802 -0.743539 -0.727337 -4.274374
སྡེ 5.479219 0.729395 2.194122 0.459772 -2.601935 -3.069514 1.721961 -3.964224 -0.159710 -4.434565 -1.786525 -5.192642 3.669637 -3.093124 1.125629 -5.308936 9.109423 -0.111338 -8.580873 -2.606768 -2.815649 4.430740 5.561420 -4.430099 -1.593665 0.036013 3.254453 3.052235 -2.697335 -6.694743
རྒྱུན -6.514340 1.391021 -0.850524 -0.605853 -5.041970 -0.782396 2.825616 2.621576 -1.282567 8.605594 -5.777020 2.618158 3.087777 -5.811558 4.631066 -1.313262 2.885954 4.195329 -2.804862 8.282418 -1.980695 2.508303 -4.556034 -3.238665 -3.543128 1.558884 -1.674942 -0.963937 -1.766449 -11.310915
ཐོག 1.175222 -1.206419 -0.591896 -0.030811 -2.502205 3.478708 -1.720729 -2.397484 3.251880 4.240134 -1.535559 -2.297540 2.012062 -0.748933 0.968769 2.789038 0.586602 -1.382359 -0.417568 -0.597714 -4.738595 -0.653936 -5.666477 7.026515 0.321142 3.117611 -4.127648 -0.748177 -1.974071 -1.881604
” -2.311433 -3.501815 1.221086 2.668162 1.235284 4.572199 -2.273002 -0.997310 2.290744 -0.119153 0.878295 -2.745264 5.158762 1.995043 -2.653047 -1.261154 2.174582 6.104270 -2.581907 2.940290 -3.746645 -1.725096 2.804889 -1.805134 5.984964 3.018667 1.621489 -3.413586 -3.736360 3.884906
བཤད 2.550071 -0.247531 -7.728330 -2.271397 1.644439 -2.222692 -1.317942 7.696617 -1.511977 -6.010896 -1.497102 0.645969 -2.504759 4.843832 0.838683 -0.178449 7.141830 3.959436 3.571694 2.269091 -5.579494 -2.811591 -2.587832 2.465323 9.201421 6.724923 -5.842803 -3.271739 -4.555486 2.566660
རྣམས 3.201599 3.735740 2.700835 0.873096 -4.398703 -2.755672 0.144473 4.613378 -2.345352 -2.291778 -1.026637 -2.521399 2.628272 -1.099242 4.448891 -5.667208 -1.826189 -2.057733 3.802773 -0.973020 -4.393681 2.725872 2.637594 1.267359 3.058617 2.427350 -5.642044 1.898078 0.785270 -4.267942
ཤུགས -5.022327 -7.839352 -6.289933 -6.196831 4.756431 -7.927560 0.292546 0.119870 3.850903 2.407386 -3.557358 0.316997 2.657253 -1.493519 11.146007 4.654893 -11.943142 -1.178465 -6.715755 9.222659 7.690870 1.728471 5.107450 -9.648058 1.165392 -4.425155 -2.471310 4.751472 -0.973001 -2.049199
ལེན -4.804544 -6.227816 4.165409 2.717337 10.525737 0.774719 -1.628101 -1.860933 -4.102406 -1.046654 -7.005467 -1.201950 -7.300782 -0.722768 -0.662418 -7.556561 -4.194750 -3.764464 1.354392 -1.278745 -5.919160 1.835370 3.594096 -7.174567 7.778167 7.702510 -1.373800 -1.619448 4.320784 3.669699
དངོས -1.025982 -0.484085 4.807482 -4.358602 -3.814641 -2.919330 1.099704 4.165482 -3.433132 2.353216 -9.854317 -6.065888 0.330929 2.000974 1.749939 -8.518924 -2.688693 -0.946941 -2.461508 -2.538137 -3.298591 7.522996 -1.779233 0.927516 4.450426 2.933389 -0.814885 -1.344623 -0.911208 2.398917
པར 9.326150 3.730283 3.608409 3.061340 9.434644 -4.330245 -2.949754 -4.911075 -2.120222 1.904331 -4.799746 5.460392 1.603006 -1.292666 3.725621 -2.274126 -4.327090 -7.216908 4.825541 -3.253168 -4.751433 6.496568 -8.390262 2.838753 5.499564 -0.298045 -4.957670 1.841238 -5.433190 -9.793092
ཡོན 4.877301 3.130446 3.591644 -6.594054 0.970219 -5.889411 0.560440 4.158928 2.164002 1.463240 0.528074 4.837047 2.904978 -0.665900 -3.118516 -5.008386 5.446114 -5.498860 2.053761 4.392510 5.018310 5.613007 0.545516 -8.926683 -9.837634 -1.512928 -2.997516 3.874177 -10.615478 -12.561940
སྒོ -0.269941 -2.552768 3.588281 -3.876201 0.221210 3.116478 -2.932643 1.829171 2.061780 7.114819 -4.426001 0.704423 2.377604 -2.281497 0.924583 -3.534073 1.422886 2.261233 1.243454 -1.314081 0.003042 6.691246 -5.180733 -2.569247 -0.681714 0.709670 -5.236953 -0.479970 3.617244 2.541016
ལེགས -4.568859 -4.644064 2.786592 -1.100646 -3.032643 0.400863 -4.041449 5.426811 -2.564231 1.174059 -9.514470 1.123378 6.725953 6.580017 4.492311 -3.925872 -7.594080 -0.858574 4.221209 4.112281 -3.879531 9.211568 -3.426985 -5.418068 -1.955098 -0.216315 -1.770411 -1.892578 1.002561 5.199309
གྲོས 4.169753 -5.614582 -3.404581 -7.029756 -9.167596 6.615841 -6.579940 6.693952 6.268923 -0.781623 -3.039170 2.709650 -11.056451 -3.424977 -3.032633 -0.248511 11.102206 -6.247116 -0.351899 -4.846751 -3.234479 2.148215 -1.953256 -10.175396 2.259565 1.325183 4.203360 -3.734859 -4.197173 -5.710461
རྩོམ 6.871665 -1.860037 -1.232092 1.472628 2.927058 1.873276 3.417231 9.165723 2.261351 -6.874945 -6.554328 4.048354 0.475088 2.442439 -3.894884 -3.204100 -0.498796 0.042531 8.940330 -3.588508 -0.037168 5.629556 -3.414187 2.430006 6.603004 3.169007 1.460123 0.321324 -0.539669 1.341495
བར 3.152682 1.710546 4.218101 -0.809126 -3.852014 1.331078 -2.391848 -5.840727 -0.676374 7.003533 0.255708 -0.470846 -2.914917 -2.636447 1.039261 -3.318156 0.388431 -0.257156 -0.711065 -3.544887 -0.622644 -3.913022 -3.934441 -0.058940 4.605210 -6.168559 -1.726204 -1.672187 0.539537 -3.993012
ཚུལ -4.056946 2.716811 0.449647 -3.947058 -2.092653 -4.737411 -6.101542 -0.744903 3.099528 2.267519 -4.733333 0.911340 5.223840 -1.003090 4.881235 -4.500893 -2.063734 3.213086 1.037755 0.511684 -8.999207 5.509249 -4.685620 6.448769 -2.716897 6.507787 2.391179 -3.320203 -4.199017 -0.244131
སྟེ -2.234799 -3.082485 2.582959 -0.859614 -1.780594 -2.360175 -5.403208 -0.022368 -1.508597 1.820805 1.827058 5.085995 3.562526 2.500444 0.679614 -2.795444 -1.879944 1.280341 -2.114080 -1.438842 -6.524412 1.075930 -0.384023 -2.096107 3.852543 -2.540374 -7.214393 -0.418603 -2.834895 5.525410
གཞུང 7.227477 1.783969 -4.148648 -1.282248 -3.240592 -2.330511 4.132342 -1.685292 3.528499 -5.756688 -1.243172 -1.076029 -2.718839 -1.767465 -4.034348 -4.030044 7.874999 -9.576018 -5.032004 -0.401211 -4.525307 3.564278 -6.327439 -3.146411 4.244856 2.314386 9.028248 -0.345218 -1.155423 -1.293645
རྩ -5.029456 -6.112947 1.741351 -3.311084 -2.649935 9.028958 -0.574430 1.790371 4.416414 0.322716 -3.529807 -4.754176 5.492548 -0.375667 2.499908 -4.101479 1.700723 0.142874 -5.534058 2.801638 4.012893 0.235512 -2.175257 -5.485489 2.440694 -2.367961 3.487493 1.449532 -5.725836 -4.131229
ཚང 0.993520 -2.008058 -0.393678 -4.021759 -2.834363 -1.481850 -1.716012 -6.245324 6.917144 -0.866029 1.312738 -2.175766 7.280690 3.028875 -1.205912 5.608954 4.870603 -2.697321 1.698466 -3.478478 -10.299487 5.697463 -1.443751 -1.652899 -1.290105 -2.664164 -2.059388 5.970288 5.868066 -6.358552
རུ 2.032241 -1.153444 -2.533947 0.472184 1.826974 -6.647492 -8.168611 -0.899445 -4.636362 3.015605 -0.275656 -0.682781 5.471429 -4.433056 -0.329748 -0.862721 3.509167 -1.482021 -7.770783 -0.427693 0.308261 1.509686 5.451839 -7.031987 -4.296443 -7.678237 -9.748056 3.500313 0.303346 2.427718
ཉིད 0.704120 3.581838 5.058660 -2.522931 -3.521868 -0.680938 0.766565 7.161915 -2.809159 -2.016434 2.099850 -2.404125 4.381498 -1.935376 5.860866 -10.567945 -3.894562 2.032902 6.576566 3.081342 -2.333433 -4.109053 -2.964754 1.141152 8.006046 2.818650 -3.006277 1.416967 -1.911829 -4.632888
ཁག 7.232773 -6.167808 -2.745533 -2.237421 1.308064 -2.947120 3.991833 -7.727462 7.461896 -3.043852 -1.536287 -6.465352 -0.588607 -0.389050 -0.893190 2.710815 2.075224 1.580048 -9.199884 4.130392 -4.006203 6.144732 3.732199 -2.835715 2.276448 4.468539 1.504632 3.618515 -6.102636 -2.772940
སྐུལ -11.761490 -8.568197 -12.964277 -4.724041 -5.485246 -3.895921 -10.379912 4.967093 1.778239 2.725180 -5.115745 4.500059 0.503457 -11.368044 3.295733 2.409851 -8.670184 -1.316050 -6.840124 4.754518 2.939287 0.716850 -6.433256 -13.948322 -5.241577 2.904189 0.603041 -7.018761 3.780659 5.084195
བསྟན 1.509307 4.615149 -3.814173 -3.767309 -2.146047 1.349909 -0.340292 6.854707 -5.142528 -1.924104 -1.456723 -1.220663 1.831200 6.716916 3.652730 -1.907794 8.565451 3.503344 0.871045 2.463605 1.402716 1.276314 -4.278678 1.705300 4.507604 7.928185 -2.413665 -2.811159 -3.063102 0.837624
ཡིག 9.148918 2.916360 -2.543631 2.646248 3.741780 2.786928 -0.967650 8.431941 7.814501 -4.988370 -5.611945 1.433056 6.211741 -0.094479 -8.097576 -1.896239 -0.815986 -1.785093 -0.536192 3.538048 -9.300734 3.470252 -3.063494 8.100216 -2.648813 5.851968 -1.093432 4.764846 -1.040769 -0.147707
ཕྱིར -7.305691 2.568759 3.918291 -3.173378 -1.411778 -2.522738 -5.531860 -4.411982 2.041332 1.476745 -1.967228 -0.029808 1.952675 -0.939342 2.518752 -6.857235 -2.736817 2.912296 0.737493 3.686699 -6.693742 2.598386 -4.291319 0.972059 1.463565 -2.701295 -3.894629 -1.344072 -2.490833 -2.035410
ཁབ 8.122349 1.061654 -1.265053 0.894606 -14.746415 -2.092028 2.688938 3.274827 -0.918612 4.499296 -6.558459 -1.789038 -9.748467 2.574100 -0.449233 -2.156232 -9.817250 -6.755368 -6.491196 7.439657 -2.532668 0.199362 12.271688 4.941160 -4.983130 3.960955 -0.613924 0.969872 -3.236999 -1.627869
མཐུན -0.692970 -1.025451 3.186982 0.101188 -3.560938 2.186059 -0.737421 2.216087 4.323555 1.989552 0.322983 -1.114835 -8.804547 -1.807466 12.474422 1.968829 -0.308914 -5.903497 -0.968093 2.577690 -2.955267 -0.432115 -4.444162 -4.081258 3.069093 3.374253 6.563403 2.746693 -5.273703 -7.534987
སྐོར 0.530728 2.378722 -1.075892 -1.242904 -3.585309 -1.650518 -1.462777 -0.918187 1.567783 0.531814 -6.404241 -1.806907 2.834191 1.619963 1.427158 -3.978818 3.269563 4.483881 -2.716686 -9.748538 -1.975228 8.762843 -3.072772 0.152016 2.300560 0.519677 6.857871 -1.830679 0.282044 1.530443
སེམས -1.042966 5.072066 1.866582 2.963103 -6.320498 -3.112151 -1.831170 1.063676 -1.169341 1.093935 4.863482 -1.340507 -0.043741 -0.114092 9.177946 -2.863317 -2.040204 -2.899357 2.386889 5.911762 -5.458406 -1.535217 5.699798 -6.368573 6.522915 1.501690 -4.511886 -4.278643 3.944337 -1.070624
ནུས -5.157742 -2.299870 -2.022544 1.898786 2.280848 -2.127219 -2.593040 5.744284 0.446519 0.931357 -9.270021 -4.419041 3.296886 -1.137677 9.023718 0.536381 -5.045357 -2.800342 -4.484283 6.708503 -0.989695 7.817369 3.507148 -6.604288 -0.470979 -1.119256 -2.781956 1.462791 1.100310 0.893821
དབང -0.667879 -0.482348 1.290255 1.110946 -7.025414 -2.489709 0.981356 0.233162 1.798000 -4.072730 -0.813649 -6.240996 4.626301 1.761003 2.596831 -5.291430 -0.099119 -8.416500 0.962315 5.617807 -4.590796 -0.627618 -1.996044 -0.043444 4.075137 2.765101 -0.677159 -1.165992 -5.584467 -5.333054
སྐྲུན -13.343039 -4.310910 -0.402400 0.841599 1.506048 12.538164 7.607049 1.179145 8.334680 1.269005 -4.292456 0.096788 3.769461 -0.988359 0.970890 2.429568 1.251973 5.352746 -5.336832 0.376527 4.561718 6.538566 -4.558273 -7.813130 -2.191952 -3.600211 6.729074 -0.802349 -8.374834 -3.138792
ཨུ 5.909734 -3.259466 -1.799202 -8.139051 -2.518189 -3.465806 13.278589 -1.488783 3.968336 -5.521115 -2.090763 5.288650 -11.509836 8.115072 0.279747 0.753373 12.852987 -1.638893 -2.157865 0.369866 9.295812 -0.690014 11.373839 -5.355673 -3.095241 -0.891857 11.777294 6.013893 -3.625763 -11.557265
སྲུང -7.418395 -6.931832 -4.048398 4.058702 -1.398922 -9.229801 5.912597 3.138577 -6.813402 4.499519 -9.359129 -9.946462 1.255383 0.987709 -3.121635 -5.752990 -6.711418 -5.923618 -1.573523 3.471627 -5.720706 0.263316 6.837423 -8.754736 3.206570 5.535151 4.801270 0.332311 -1.463324 0.836700
གཙོ 5.663884 -10.888729 4.689219 1.058604 -4.999153 2.915458 1.360770 -3.391419 -9.072530 -7.162799 -9.860539 -3.234159 4.319622 -0.719121 -1.704306 -5.787027 -3.148013 1.141597 -1.891433 3.614320 -0.899813 3.816508 -9.767969 -5.235586 -3.676923 8.346098 2.786927 -4.939249 -10.693287 -5.660168
བཅོས -5.615932 -8.865683 -3.725691 2.471579 4.788275 -2.500364 8.165595 5.343277 1.085688 8.469912 -9.926442 -1.957814 1.722733 2.419627 -3.893266 -2.678015 -7.796095 -5.241694 -0.677075 6.540404 -3.502251 3.279980 -2.200096 -1.220997 2.520330 7.761259 -0.871282 5.477939 -0.989355 2.877673
བཏང 0.175052 -8.222962 6.213081 -1.099565 1.704100 -2.741960 1.422393 -3.246364 2.893282 2.887697 -4.675112 -4.817554 -1.797497 5.253389 6.236485 6.730301 3.667088 3.335127 1.043086 8.319334 2.809223 -4.215687 -4.086399 -4.836052 -2.297360 -4.975793 -7.086761 -5.136574 7.048902 5.052855
རི 6.414561 5.610630 6.347921 7.438888 -1.447583 -5.884139 -0.545883 -2.943510 -8.128648 -1.145397 -0.326518 -5.236584 5.105500 -2.243552 -6.844129 -2.839603 -0.295817 -1.749275 -2.980567 -3.483690 1.559143 -2.743121 0.759551 1.166038 -3.193957 1.527045 -2.315154 -6.176335 -2.312185 -0.108402
རྗེས -0.481517 -1.034108 2.682914 -2.772356 -5.122591 -0.751545 -0.237334 1.155877 -4.074522 3.655049 -0.323480 5.669213 -3.041302 2.752407 -0.735590 -4.753529 -5.537326 2.896577 2.363994 -1.088962 -4.452570 0.872721 -2.208623 -0.754067 1.365476 1.060290 -8.099084 0.709098 1.048503 2.403654
ད -0.741684 2.404043 -2.184003 4.136384 -15.111947 -6.034637 -8.587333 5.993630 1.135988 -9.408509 0.461437 1.014350 -2.614051 -7.740042 -9.840619 -3.254848 -2.753553 4.118770 -8.181801 -4.815980 -5.186084 -3.756490 -4.712165 -0.548635 1.784692 0.958734 -5.609421 -1.836124 5.669600 1.311797
ཤིང -6.774537 -2.666713 3.002326 4.623156 -0.021676 -1.300013 -0.749271 -2.351507 -0.683336 -2.101802 2.282013 3.716541 2.500154 3.076936 -0.739261 -0.536714 -0.879181 -1.084577 0.318254 -3.946134 -3.165876 -0.044933 -1.604508 0.118445 -0.712129 4.872484 -5.051325 -0.917326 -5.094810 -0.119411
ལྗོངས 6.789220 5.621251 4.052611 6.769054 -4.485574 -0.972482 7.837872 7.864414 0.901764 2.388147 3.361953 -2.423692 5.209953 -5.880979 -6.245833 -2.916520 -5.157736 1.171444 0.807713 -3.159273 -5.271839 2.463608 -1.741063 -6.542761 -4.369612 -2.722083 6.436266 2.053055 -4.547305 0.526453
སྤྱོད -7.903982 -0.203106 3.316149 -1.289840 3.299193 -3.685947 1.783055 2.772807 6.075115 -0.290195 -4.257081 -4.267582 1.131899 -0.097007 4.290090 -8.162622 -8.494623 -4.144873 0.008413 0.528603 -0.666956 3.105282 -0.621680 -2.582443 7.624491 -1.645656 6.607549 -0.026562 1.457825 5.959271
བཅུ 13.367688 -1.394682 -0.203743 -3.617350 -4.663412 9.205299 -5.519969 0.775597 5.294513 0.383474 4.926213 7.054461 0.734290 2.696083 -0.687608 3.128227 5.909155 -0.024679 -2.765457 -6.773386 -3.250859 -6.224529 5.103707 -1.111721 5.683467 0.109101 -2.028348 -3.346674 -1.114751 -4.639093
ཚན 8.806557 -0.456818 -7.868474 0.485615 1.536201 3.297414 0.645493 5.113991 3.869040 0.674444 -6.345174 -5.984327 -2.469171 -4.388448 -2.515098 -6.027608 2.458929 1.599266 -5.127707 -6.243248 1.908346 8.834904 2.223450 -1.579306 7.292433 1.350104 -2.562819 6.615528 -5.820258 -0.777330
ཞི -3.972518 2.685881 -2.373272 3.583473 -12.813076 -2.958791 -0.021891 7.410819 2.459987 3.399580 6.883573 -4.938473 -6.331219 1.563897 -4.961431 5.984957 10.676045 -3.954880 4.938797 -1.421352 0.681720 -5.229355 1.905825 1.061856 -0.140863 0.928409 3.090451 0.580998 -9.310746 -3.834422
དམ -9.227819 -1.949031 -4.748875 -3.916141 -1.494336 -2.665679 -3.916551 0.708210 -9.553543 3.636636 -11.769711 -7.566464 -0.444829 -1.624778 6.948201 -7.382203 2.859246 2.593877 -1.334921 5.103490 2.271956 0.148711 -0.820164 -2.196379 0.023786 3.998881 1.083013 1.806535 -1.064353 -7.607211
ཁྱབ 5.796608 0.054419 -2.437061 -5.951765 2.277713 -5.864827 0.105053 -1.495677 4.398025 2.736941 -1.782943 -7.279355 -6.495522 5.376905 4.797347 -0.042391 -1.708700 -7.294942 0.589737 -1.460094 -0.878825 1.275603 -5.166781 -0.600475 -2.571321 -3.861003 5.334003 3.359655 -9.283034 5.118535
གྲུབ -1.951821 -2.680128 -1.838602 2.403350 -2.077823 -1.011896 -3.935159 3.881130 0.957241 -1.356892 -5.622448 -5.816419 -0.515342 1.541504 6.476020 -3.235588 -4.887990 -8.034974 -1.615145 -4.154419 0.722926 -0.804894 -3.195773 1.772164 10.827136 8.657084 -6.687534 -7.193386 -3.632277 1.302107
ཚེ -6.122029 -0.098692 4.552379 -0.513385 -9.257306 1.276132 0.831040 1.637847 -1.705416 -2.223761 3.526833 2.510367 2.354312 1.760212 -0.299313 -3.344203 -1.198359 -4.110699 3.423013 -0.197738 -3.497478 -2.216621 -1.079720 4.373213 4.299129 3.167186 -6.590670 -0.277251 1.286062 -2.407084
བཞི 6.018591 -1.458811 3.378119 -1.996713 -1.677989 5.695557 -5.337289 -0.994996 0.008549 1.487291 -2.818650 -0.191408 5.565809 1.624610 0.449630 -0.299783 3.441354 1.303098 -2.959683 -4.240403 -2.426867 -3.235967 4.580123 1.851486 4.778068 -2.230047 -2.397167 -3.983119 -1.826876 -5.266829
༎ -5.133654 5.562830 0.012680 5.459661 4.314645 -3.432732 -3.739930 -6.296478 3.680303 -2.653091 4.349092 4.278145 2.392071 2.785053 -1.928397 -2.454175 -3.288167 7.447731 3.479352 -0.017452 0.755190 -4.055048 9.895031 3.721385 1.227038 -1.918745 -15.264041 -3.509404 -0.195488 -1.554564
ཁྲིམས -2.960924 -2.195746 -4.134619 -5.063881 -6.233132 0.630202 -0.399689 2.767263 0.746871 1.018331 -12.166766 -5.568065 -2.815679 -1.133005 -3.774950 -8.224247 0.214322 -0.853071 2.448732 11.487506 -2.100667 3.302247 -3.463938 1.444570 -0.345567 4.341193 10.796085 5.725434 -0.035526 -8.098418
སྟོན -3.236038 -2.196925 -2.160796 1.868044 4.206285 3.215492 5.802661 1.417830 -3.932224 -2.105833 -5.405370 0.256521 1.236186 -1.642978 4.124893 0.857756 5.662350 2.892963 -0.156783 -9.577182 -3.342656 4.761315 -2.737597 3.774293 -0.605680 8.376529 -1.622877 -2.555128 -3.738479 -0.127330
ཁྲིད 2.000916 -8.413298 1.969074 -1.303849 2.340197 -1.533100 3.516544 2.382026 -3.001735 -2.513680 -2.908161 0.343651 -1.350616 -5.238971 -1.379629 2.753273 1.090131 3.393011 3.790503 -10.033047 5.355183 9.508759 -0.187489 -8.017373 7.615388 7.773045 3.735718 1.303260 0.618800 -4.864104
ནད -2.870195 5.465448 2.585624 2.744108 4.529302 -0.683301 3.927532 7.065154 1.960604 0.866442 -6.323472 -1.553050 -2.138396 7.969883 -3.151962 0.186673 -7.481069 -0.545364 -5.198675 1.916880 4.318886 -5.042766 -3.691900 -2.316326 8.098115 -0.410572 -7.930041 0.257727 2.626961 -5.900829
ཡི 2.682831 1.800149 3.279196 0.912905 2.646475 -2.724619 -3.780995 4.423856 -2.749456 -3.408982 -2.169078 -3.966917 3.010891 0.266269 -3.715096 -6.177487 3.252418 -2.986378 -0.123301 -6.681277 -1.621568 -2.984963 3.490296 2.777807 -0.032106 -3.000368 3.042760 6.484001 -3.125799 -1.659594
གཞན -0.107843 2.898259 3.431575 1.139686 -2.536346 -5.328871 -0.931718 -1.899485 0.615682 -2.987415 -2.674329 -2.852078 2.196949 0.554586 3.157948 -4.097191 2.220288 1.780420 -0.910728 2.827202 -4.298840 4.480167 -5.680153 1.245814 6.527977 3.173160 -1.321499 1.766067 1.679194 -4.991934
ཐུབ -7.496619 -3.144993 1.893696 -1.904315 2.654808 -4.170566 -4.330018 -1.009044 -1.010577 2.172335 -2.749580 -1.291801 3.033336 -0.835860 5.368479 -0.772314 -3.685621 0.019417 1.988445 3.433331 -5.634319 2.966494 -0.307676 -1.651216 2.227270 -0.457855 -4.369951 -0.753214 0.687927 2.262491
ཕན -1.780768 -9.636600 0.803961 5.323395 -4.047052 -5.667766 -3.446491 -3.684256 3.918572 0.289252 -5.108973 -6.418499 -4.541097 -0.387833 10.773489 -4.420145 -5.538715 -4.550165 -3.973680 -1.148548 7.352770 -2.329923 4.654052 -3.337821 9.448009 3.122922 -1.458984 -2.678078 -2.280254 0.318583
དགེ 2.904845 -1.780634 -2.716975 2.967104 0.212149 6.940947 3.071386 5.026535 1.342417 -6.451829 0.866935 0.050076 7.126515 -3.341166 5.916521 -7.159363 4.108826 0.411180 6.035080 3.579614 1.831099 -0.054450 1.074158 -4.196308 2.806576 8.464626 -8.240438 3.415350 3.723034 -7.863357
འཕྲིན 1.505904 1.819629 -7.914796 2.184212 -2.537262 0.532613 -2.677532 4.973177 9.405319 -2.748564 -6.126925 0.677621 3.534993 -1.906378 1.352330 1.008549 1.994010 -3.863830 0.962768 4.253864 1.099354 -0.295246 -8.770075 7.730011 -5.996156 -8.713450 1.532390 -2.276629 -3.654395 5.295191
ཐང -3.575103 -0.446577 -0.834195 3.777292 -7.668849 -4.113785 5.787630 -3.437793 4.917257 -1.773039 -1.000123 -2.726909 2.333390 5.895976 -3.137610 -7.470821 2.200678 -1.712795 -4.610165 -2.141834 2.389532 2.923137 3.131105 -1.961496 -0.871243 -0.097518 -5.484275 -1.391296 1.187058 5.258318
འགྲོ -2.103345 -0.027255 4.777399 -0.367516 -1.416877 -6.517522 1.806892 -2.573066 2.032903 1.302691 -1.516466 -0.287533 -0.247497 4.912183 5.099809 -0.027078 1.109072 -1.157911 -0.714344 2.090083 -4.897542 -3.800728 -1.107225 -3.935213 2.142883 -1.536304 -2.798208 -6.855607 7.282965 2.722315
ཚེས 8.653741 9.652186 -10.706986 -5.401051 2.145359 16.102736 -0.410829 -2.844856 0.418602 1.543413 -0.311646 -3.305372 -14.669679 -0.417580 2.565566 0.243471 0.896823 -0.317369 0.954372 -3.660216 -5.086920 -21.474606 0.319218 3.092878 -0.825245 -10.010718 -5.054406 -4.882898 -3.239104 -8.271118
བསམ 0.665047 -1.499264 3.831411 0.297743 -1.791286 2.146871 -7.789048 -1.669619 4.349604 1.372606 -0.203322 4.908721 -2.032599 -1.925153 4.802531 -0.754131 -1.896680 -1.639249 10.337017 5.435055 -5.940204 3.376728 -0.602806 -3.083524 2.966149 7.911080 5.653062 -5.746584 0.562142 -4.617327
ཅི -2.951458 0.915250 -5.667331 -1.007988 -7.696673 -7.638763 -2.071546 -1.772323 -5.410169 -7.071487 4.100532 -0.160095 -5.540547 -0.138533 2.542321 -1.055831 4.564370 4.159958 3.666507 2.098548 -2.019995 2.485670 -4.398305 -1.353740 0.392422 -2.084501 0.516429 4.923296 -7.952084 -0.860267
བློ -4.715914 -3.216218 -2.899276 -0.918460 -6.206092 -2.185778 -3.919502 3.680897 2.386415 6.712219 4.473963 -2.276570 1.466699 -4.043168 6.070078 1.009131 0.528445 -4.215485 8.795593 0.459031 0.691635 3.145983 6.419437 2.707765 8.236641 4.005754 0.754100 2.004333 -3.382884 -0.094186
རྫོང 4.550017 3.370422 -1.407751 1.433890 -3.193049 -0.282830 9.800520 -6.483509 -1.289598 -0.845761 5.960122 -5.674951 1.513598 -2.714042 -8.034957 -1.425818 2.909654 1.498626 -5.258873 -5.489551 -1.100469 1.096253 4.287069 -3.630828 -3.479589 -2.467088 0.917972 2.871386 -3.549103 -0.581919
ལྷ 1.890496 6.959736 0.923587 1.221835 -4.106712 -0.336235 3.161732 -2.368334 -2.124075 -0.655056 1.426593 -0.573515 2.479795 -1.200159 -3.345786 -6.432372 6.683653 0.145567 2.136967 -5.277550 -1.473123 0.387148 0.696283 0.602860 -2.286923 0.728520 -5.273364 -4.197809 1.872459 -2.221130
མཐོ 8.980061 0.263704 2.497444 2.400581 0.887442 -2.911371 1.120253 -7.012815 3.958288 2.358049 -1.991671 3.599400 9.390991 8.404837 3.929306 0.255940 -6.474123 6.846603 -6.859173 -0.928342 5.646283 2.120083 0.061108 -8.606915 -2.223429 -0.409815 -1.559640 -5.588848 3.796970 1.328893
གནང -1.917026 -7.635345 -3.033087 -6.513764 -0.389062 -3.317143 -3.657310 3.159179 -0.028133 -4.166441 -1.400315 0.022831 -0.568211 1.889120 2.324912 3.108147 12.176443 4.074524 5.887338 -0.478144 -2.208704 0.269627 1.517914 3.821223 -0.245520 6.225948 0.338647 1.093302 1.828171 3.689841
དཔལ -1.376593 -5.289254 -7.733216 9.580115 -11.953355 7.290069 7.271715 -6.608920 -2.341789 7.089162 -1.587268 -2.273315 4.188326 -3.566779 9.847433 0.002155 0.708510 -2.087446 -3.434273 -4.099776 2.857723 0.726945 3.885465 1.005582 -0.340814 2.921776 4.482311 -6.081674 -8.095033 -0.713649
འཁོར -0.323294 -1.318481 3.670239 1.505070 -4.988745 -0.877876 -3.981193 -5.680908 0.150888 2.755418 -5.094307 -0.272719 1.024475 -0.074269 0.091812 -1.633248 -2.285463 -2.721858 -0.621680 -11.447200 0.597388 -1.578843 -7.515001 2.668804 1.507278 -5.270629 0.680121 -8.088620 2.430763 2.960775
སྣ -1.724537 0.531760 2.788018 3.134485 -2.495198 1.499408 0.388949 4.555628 6.781096 -2.552775 -1.482027 -2.742163 -0.471040 -2.494055 3.271044 -2.060335 2.306103 -5.790481 -4.963358 0.780373 -7.333462 5.466440 -0.415676 -2.999909 0.243403 2.176856 -4.590940 3.543838 -0.400978 -2.510667
ཙམ 1.589952 -0.321097 4.312210 0.157301 2.529799 2.371525 -7.623027 -4.344024 3.382790 -1.125804 -0.789290 1.795384 0.046615 1.214237 0.173999 -3.197043 -3.019251 1.238447 3.020371 -3.202332 -4.565681 0.831481 -5.993984 -0.209024 6.038093 -2.250362 -9.999914 0.862673 2.639670 -2.347444
ཞུ -0.767263 -6.743192 -1.821187 -4.835259 1.556146 2.226004 -3.009935 -4.373816 2.119770 -8.905088 -8.161816 3.436078 -2.864196 5.217573 8.067422 -4.649684 3.430230 -3.812295 -4.230803 -0.523041 2.908438 3.547573 2.356154 4.440610 -3.185894 5.015279 3.904813 -1.510898 4.710966 8.840548
གླིང 6.243367 -0.728966 0.739077 7.406488 -0.959854 -1.240739 9.194155 -1.187541 0.118545 6.310531 0.172047 -6.786114 2.450566 -0.638663 0.241717 -4.383417 2.984420 1.700700 0.417696 -3.823731 10.385284 -2.980683 -0.189386 8.856990 -0.316261 8.126146 0.338569 4.317473 -3.987593 0.736857
སྨན 0.390921 5.393584 2.763280 0.266086 0.279082 -0.320959 2.538344 1.200316 2.962437 -2.955382 -3.563788 -3.147482 1.131036 8.844441 -1.175270 -4.803385 0.518903 -1.968464 -4.888963 3.142697 3.234532 5.065650 -9.001397 -5.575773 -5.076991 1.099452 -2.367902 6.306294 0.497724 -2.745413
གྱུར 0.778803 2.092458 2.042485 -0.169444 1.413747 -1.747942 -4.233478 0.677849 3.322407 1.484675 -0.419384 -1.824664 0.210593 3.417975 1.853039 0.963202 -0.843971 2.158505 2.461014 4.983101 -1.168396 -1.522847 -1.622792 -6.063370 9.265151 0.454860 -2.765272 -6.001203 -0.158263 -3.577680
ཟེར -6.445839 -1.192741 -0.180481 -0.745791 2.960963 -4.471010 -5.832440 -3.005649 -0.612978 -5.486817 -0.546065 1.805584 4.660924 4.025645 1.133852 -0.420327 1.411806 2.791630 2.414417 2.782501 -6.144234 -1.714053 2.797464 -2.539817 3.160011 -2.706609 -3.752206 -4.522948 -1.750091 -0.155584
ཁོ 4.675871 1.399507 3.164197 0.131216 -2.531631 -8.050622 -1.044359 -4.169615 -2.404266 -6.195725 2.433471 -0.242947 -1.957507 -1.810541 -3.134896 -4.990244 -2.954727 2.281293 3.291223 1.346938 -3.696269 -5.024909 -2.890862 -0.952302 2.600594 5.065789 -6.637379 -3.051453 0.540070 -5.253143
ཨ 7.111969 8.794810 2.072873 2.970558 -1.120361 -4.745647 -3.903216 -4.574001 -4.549443 -4.073103 8.499334 -5.538546 -1.619476 -2.338691 -1.367686 -3.725182 5.527950 -0.893668 -0.527196 -0.944874 4.492403 -5.480852 3.017633 3.531865 5.016031 -0.488578 -4.252213 0.509430 1.116552 1.425709
རྩལ 2.955666 4.237091 3.613561 8.308793 11.410066 2.194589 6.605311 3.734546 7.663442 -3.381827 -1.099279 10.088082 -2.527842 -5.505505 3.235425 -6.330108 -0.490524 -0.606665 -7.996120 -7.064501 3.205889 6.010811 1.971173 -5.328568 -3.049404 8.972943 2.290959 -0.305675 -2.041768 0.053846
ཆུང 4.763896 -2.754397 -0.081328 2.713989 1.231542 -2.963155 -1.066797 -5.574022 3.900849 -6.675606 0.551556 -0.479629 5.645242 -2.603097 -0.392825 0.064597 2.642193 1.449751 -3.028162 -5.042823 -0.383569 -0.075806 -1.275316 -0.658164 -1.753541 3.059690 -5.960106 3.524045 2.420544 -6.696529
ཁྱེར -2.897033 3.567414 4.350362 8.178691 1.646801 3.716842 1.960918 -5.476272 -5.791102 3.524066 1.053112 -5.282475 -4.554236 -9.773050 -3.406599 -2.699170 13.519914 8.568369 1.539408 -3.229767 1.050406 1.926615 0.412428 -6.430007 -8.559745 -5.785558 8.620781 2.059546 5.827235 4.119881
ལྔ 8.230850 -1.349584 2.769719 -1.855343 -1.888018 7.889605 -4.581903 -0.789281 -0.742369 -3.199308 -1.717013 2.226266 3.828732 0.038054 0.103061 0.482254 2.579051 0.422513 -1.966442 -5.677385 -1.584057 -3.253103 3.718901 2.458200 4.728506 -2.236610 -3.453290 -2.942146 -1.079143 -6.926604
ཀ -0.170754 0.082163 5.388639 2.660027 -1.639454 1.736632 -2.977220 -4.084301 3.307987 -1.063431 -2.086574 -2.662821 0.817215 -1.297842 -0.974093 -3.535578 1.919631 2.730695 -6.431899 0.647251 0.187125 0.665660 1.751400 0.844034 0.979296 4.563991 -4.277029 -1.535300 2.460514 -2.446422
གསལ 1.497737 -1.638509 -0.692744 2.412110 1.749874 1.573578 -7.115792 -0.762579 -3.663898 -0.755027 -8.643387 2.949838 3.930112 4.147532 4.762413 -4.899505 -2.558211 1.005714 3.040144 3.545623 -3.258398 -0.830819 -8.294354 0.059707 2.430446 -0.709397 -1.184539 -8.497910 -7.410465 0.531294
ཞུགས 1.497445 -5.900747 4.702748 -4.602417 1.522916 1.701552 0.326293 2.249262 3.280931 -1.860466 -4.880967 -0.441724 -5.231993 -1.820358 4.305686 3.018282 4.128393 -0.096130 -0.741280 -1.227620 0.938406 4.780522 -0.179080 -0.466869 0.038380 5.442178 -3.791570 0.839260 4.497204 -1.704668
སྐྱེ -1.685726 6.010230 3.495010 3.028949 -2.789439 -4.771082 5.960355 -2.540001 -2.940957 0.781648 -4.090517 -7.070393 5.334466 2.311783 9.006474 -5.823582 -2.089858 1.340847 -6.623063 3.834268 -2.230064 -4.269608 -0.972202 -3.398717 -0.802547 0.660846 2.215494 -8.435433 -6.120920 -5.203144
འབྱོར 4.706247 5.973878 14.803161 -1.848671 2.823305 0.202534 0.625700 3.038519 4.256453 11.282228 -2.905010 -0.056560 -3.322679 -1.653893 6.924131 -5.878019 -5.046391 -8.382852 2.123173 -4.050256 7.964864 -0.792034 1.075403 -6.426538 -9.973113 -1.581496 2.917159 -4.528429 1.367545 -3.408171
དོ -3.929955 -1.571535 7.321647 -11.901670 0.852991 -8.831656 -3.933098 -3.324416 2.361123 -4.472996 -0.463775 2.570166 6.016615 2.327042 -1.209998 -6.162068 -1.548461 -6.728112 -7.513619 2.170357 -0.815189 3.239137 2.436018 -2.287598 0.994712 5.484409 5.493309 -4.766901 -3.485681 -0.151150
ངོ 2.851516 -1.839187 5.338068 1.738168 -5.703926 4.149086 -7.554130 -4.558199 -2.249204 -8.685802 0.359052 -0.879922 1.895521 -0.973231 2.278181 -0.835278 -6.949537 -1.409121 1.365838 2.777707 -4.580321 -0.993056 -10.205702 2.001758 2.754237 3.408318 -2.590263 -5.874783 -3.555016 -1.006396
ཐབས -5.510725 -0.361729 0.756004 -4.887780 1.333005 -0.755180 -3.517595 4.571719 1.586102 4.288736 -4.282601 0.011157 5.563084 -3.214737 -2.008080 -1.226001 -4.512056 -0.180832 0.758142 6.076511 -2.569280 10.235442 -1.019848 -0.867208 4.826761 1.365523 0.145832 0.569968 -1.672597 0.247109
བདག -2.512604 0.372459 0.192410 -0.214352 -5.984809 -4.296954 2.745897 -2.598555 -0.515641 -2.264687 -1.455674 -6.780101 3.802774 1.408768 1.588954 -4.424585 0.536237 -1.993789 0.527568 4.600099 -7.415585 0.684151 0.947452 2.379630 4.938650 6.189043 -2.481089 -0.458978 -0.781305 -5.331034
བཟང -1.122705 -3.695159 3.608476 3.413597 -0.563062 0.158422 -2.100838 -1.390171 -5.523775 -2.791635 -4.179286 -0.572602 7.926141 1.077981 4.163944 -4.233504 -1.530283 -3.887643 5.487210 1.032382 -1.674025 -0.460926 -4.854284 -4.970186 -2.719930 4.167878 1.048602 -7.459237 -6.053243 -4.111002
ཐག -11.025448 -6.014919 -3.613894 -4.695151 -3.946635 -3.181524 -6.978309 -8.073577 0.855556 0.962652 -3.376340 0.825363 -0.317510 -0.618994 -0.795663 9.407517 -3.287759 -8.079300 -1.755260 3.464648 -4.097386 2.504143 -0.790097 8.435561 5.479374 2.381496 -0.549547 -0.066868 1.900890 -4.551452
བཀོད 2.151140 -9.126130 0.655701 -1.886284 1.496755 -2.026820 -0.238455 3.714360 5.848333 1.089640 -10.062007 -1.014606 0.843457 4.084260 -9.861183 -0.933045 -2.954906 0.061903 8.720618 1.768228 0.042983 6.575807 0.942862 2.079858 4.520094 0.738156 5.392093 0.784656 -3.972971 0.923676
སྐད 11.032374 6.898258 -2.522270 4.553556 0.974497 -2.598834 -3.602605 3.779168 5.415199 -5.260276 -0.772340 -1.786159 4.621485 2.274523 -1.375449 -4.724764 -0.215207 1.230776 3.196505 4.240334 -7.666632 2.071959 -6.095624 2.223690 2.978096 -0.330420 -0.245515 2.888158 -0.038605 2.737766
ཕྱི 5.257463 2.593528 -1.201621 0.102862 -3.076071 -3.434950 -0.807381 -1.610283 -2.046518 3.266468 -4.700530 -0.196700 -3.174412 0.714300 2.412278 -2.911188 3.183308 -1.794696 -5.631968 -1.051431 0.327109 -4.152140 -2.972241 5.235430 0.412124 1.889342 -2.503844 -0.180244 3.299002 -1.093198
འདུ -0.871568 -3.485266 -5.970053 0.105740 -8.183704 6.745699 -5.978120 0.677485 7.787949 4.157807 -0.214522 3.614577 -1.662351 0.290591 2.901709 -1.491397 10.185523 1.174006 1.358001 -3.268147 -5.325612 3.430959 -3.874450 -7.057068 -2.951740 5.676625 -0.649309 -2.321683 -3.387936 -3.277673
འཇུག -2.807602 4.034273 -0.918741 -0.796042 7.660010 -0.177145 0.745106 2.810869 6.911290 -0.799688 -5.743665 -4.880439 -4.380499 4.754384 1.306900 -5.271725 8.107822 3.438610 2.451447 -2.491002 -3.563525 2.845309 -6.351633 -1.969236 2.860885 6.202857 0.594207 2.512192 1.384409 -2.064085
འདྲ -0.342847 1.818334 2.388945 1.137617 0.305175 -6.385599 -0.528484 1.192914 4.584128 -4.500494 -0.679142 -1.549314 2.954684 0.856848 3.276529 -4.131694 0.794929 1.406228 1.819486 -0.471168 -4.082810 -2.670223 -0.926012 1.091468 4.872860 -3.420593 -1.985438 -0.198545 -0.482949 -1.889372
གལ -1.198377 -3.277803 -9.845911 -9.572099 3.726441 -1.285770 3.283729 9.207690 -4.988701 -3.475547 -2.207753 3.994445 6.599746 -7.411724 6.227744 3.216423 3.412840 -1.747435 -3.885163 3.432284 0.502426 0.026636 0.451473 -0.210755 9.285249 -0.304295 -3.545018 -1.738274 1.821926 0.576726
ལྷག -2.857899 -3.558470 1.285777 2.340868 -4.702368 9.144576 -0.949818 -2.943542 8.180881 -0.805758 -2.953242 -2.870551 -3.378015 3.106443 2.066839 0.607820 0.441178 -0.353191 2.671810 -3.334878 -4.323286 0.508299 1.981126 1.731446 6.157897 -4.347134 -8.731647 2.606611 2.855774 -6.168674
རབས 6.389306 8.965604 2.315367 7.045678 -7.222721 4.314467 5.011702 8.039263 1.045461 4.889292 -1.972312 8.584524 -1.122959 -0.793003 0.277732 5.552567 -2.583339 0.202501 2.278464 -2.543767 -1.356139 0.610917 0.262739 8.550626 -2.808042 1.385882 -3.328747 -3.913627 -0.481452 -6.937783
ཁུངས -0.131493 -1.377527 1.670982 -1.940345 -3.709625 -0.650333 5.797826 3.944647 1.825403 -0.866214 -6.956817 -4.917883 -0.130188 -1.917254 3.255711 -5.267637 -5.817827 0.462349 -6.647438 3.396440 4.499489 9.196392 -0.254164 0.237608 -0.336273 -0.230213 -0.746488 4.253482 -4.857686 1.129696
ཡོང -5.990283 -5.436022 3.742247 0.256644 -2.400411 -1.087967 -0.699022 -4.362061 3.718248 0.159611 -1.860117 -2.895944 -2.792518 3.033390 7.522502 1.992512 -1.257946 1.192773 -2.531515 -1.121295 -4.892209 -3.690200 1.569470 -4.862247 1.373533 -3.665128 -0.407941 -2.252013 5.212741 2.063907
ཀུན -1.831849 4.090840 -0.093727 4.856978 -1.476521 -0.991458 -2.403374 0.993541 -1.495290 3.991457 -2.226218 -4.363342 5.420678 -0.051259 5.538913 -2.306181 2.292952 -0.480708 2.925128 3.463257 -1.819177 0.888880 -3.391655 1.673433 2.628948 6.081401 -5.234550 -5.565820 -4.637409 -4.092286
འབྲས -7.353973 -0.663306 6.782656 -6.027199 3.782215 7.760283 -0.122932 -4.457496 0.031541 3.865031 -7.076632 4.428925 7.886265 7.605046 11.728881 -4.381270 -3.181969 0.476600 1.976295 3.307835 1.117291 4.364351 3.499623 3.741730 -1.740091 2.080815 -6.998056 0.030605 6.623396 -5.365598
ཁྲི 3.337365 -2.432497 5.222006 -2.786953 -5.006093 9.732772 -0.708791 -5.628029 2.232516 -0.005800 0.812173 -3.643932 -1.740604 5.931639 -5.779500 -1.942926 -1.022340 -2.174304 -0.605166 -5.738855 -3.221340 -0.046705 4.751151 -1.740345 -0.079416 -4.737307 -8.919006 4.532922 5.269503 -1.372110
མངོན -3.216701 0.247010 -1.398388 5.149510 3.017259 -2.099023 -2.986057 1.293561 0.473637 4.764146 -5.198136 1.955786 0.696555 0.832683 14.208199 -0.061945 -2.771886 1.243589 0.698061 1.780512 -0.666520 0.158346 2.573982 4.836226 8.284957 -1.592905 -1.787447 -4.330516 -2.934328 3.069459
མེ -4.402598 7.797157 3.688513 8.854761 5.331112 -2.853641 -0.266111 -3.193882 1.347430 -0.219245 0.632421 -3.634526 4.216553 -4.650208 -1.481357 -1.796255 1.630429 -0.638954 -0.752003 -2.703306 6.338612 -3.461228 -1.155137 8.338314 2.186491 -2.949059 -4.695678 -3.914566 -1.588413 -0.042586
ཐེངས 7.481800 -6.472005 1.422294 -4.957955 0.391591 8.024407 1.221497 1.890316 8.075362 4.337860 2.354554 -0.395277 -3.567664 0.033853 -2.974580 0.698837 4.512660 3.100827 5.997252 -4.921750 -6.066379 -3.853588 2.425724 0.940315 0.047391 0.431502 -5.998440 3.964927 -2.680634 -2.184183
དཔེ 0.493605 1.101024 -6.342610 4.893476 2.843866 -1.448308 3.470884 4.165486 4.403336 -4.443821 -5.811598 0.126905 4.457449 -3.669141 -1.783503 0.291164 -2.103931 -2.120091 -0.168824 -7.265453 -5.824644 3.913530 -4.374073 4.582557 -0.167739 1.727352 -0.427013 5.484861 -0.205394 -4.405056
ཆེད -1.797270 -4.340697 -1.311686 -1.517904 1.073629 0.114833 -0.422085 0.983956 2.296722 0.438483 -3.962505 -3.810586 2.628221 -1.746563 2.617215 -2.635418 0.872938 -1.505500 -1.717834 1.189116 0.883938 6.204116 -2.624726 -1.529912 0.743112 3.556721 -1.688792 3.096063 -3.394414 0.043450
ཁྱད -6.760983 6.887454 0.488968 7.924582 -8.696837 8.468659 2.789309 8.777025 5.075939 -2.677018 -6.517143 -4.872113 4.422200 -4.411264 12.691191 -3.530147 1.729166 4.701155 4.997143 -1.955744 2.391690 5.451850 0.566142 3.930055 4.558607 -4.747931 2.568946 -2.048654 2.579209 -5.323108
གྲངས 1.695364 -1.341826 4.831281 -1.848467 5.319851 8.551985 1.912182 3.276044 3.917677 0.365577 -4.579924 -5.021899 2.644453 -3.783524 0.013513 -0.775057 -3.363189 -2.172333 -4.176959 -3.638686 -3.916077 2.662614 -5.963277 -1.760362 5.359504 -6.014288 -7.276320 2.920993 -2.781629 -3.807852
གནད -4.008005 -1.919408 -5.729533 -8.205968 -1.996655 -0.477603 -1.590079 1.144500 1.004572 3.135790 -3.345741 -8.779436 0.444794 1.204364 1.674326 3.416743 0.454730 1.281954 -8.547945 0.100963 1.194078 5.363851 0.558352 2.619440 13.687799 0.938311 3.197859 2.874513 -0.581712 3.392612
ཟད -5.168004 0.302568 -3.604460 -7.005072 2.035121 -1.666920 -8.653732 -3.082908 1.521857 -4.203938 1.652112 -1.495160 2.034113 4.426023 5.657231 3.647956 -3.184924 -1.991812 3.900856 -2.228289 -7.925654 2.212064 -3.403471 0.476408 -1.194357 0.199962 -7.642414 2.378547 2.192788 1.496120
སྒྲུབ -1.841301 -3.481674 -0.313454 -5.947100 1.358985 -0.190077 0.987902 0.781632 -2.096420 -2.340445 -4.127235 -3.357507 0.797265 0.425267 3.027174 -2.730178 1.889965 -3.612824 -1.862431 1.538261 -1.604763 4.152802 0.565095 0.189859 2.269015 5.836618 0.810393 1.008422 -0.327983 0.682996
གྲྭ 5.644983 -4.161191 0.747556 1.857994 0.336234 2.987940 3.105733 0.581538 -1.153314 2.433690 -2.755305 -0.577260 4.676224 -2.994604 -2.711142 -2.311183 1.499696 8.709343 1.046785 0.003850 3.582295 5.509895 2.430243 -1.546063 -3.800361 6.900245 -6.191186 6.118764 5.787812 -1.959093
རྟེན -2.278630 -0.696638 3.053916 0.272362 2.490782 -0.699426 -0.071790 -1.954974 -0.003864 0.400629 -4.555726 -2.567138 -0.471567 -10.373613 4.998344 -8.283030 8.044672 -7.631752 -3.329288 -7.980276 -2.602641 -0.708701 -3.711802 4.732984 3.940140 -0.495262 -4.248741 -6.440075 -5.413072 -1.097587
ལྷན 0.460532 -2.527937 -10.560530 -1.850308 -4.691648 -5.072772 1.671102 1.552748 5.192370 1.358052 -5.157998 0.801747 -2.126392 -3.812049 -2.652817 -4.436140 11.160266 -1.633885 0.705268 0.825774 2.158948 1.581871 -1.630112 -6.954349 -7.318673 -1.115375 -1.241138 3.479593 -9.055681 -13.112101
མཐའ -1.495350 0.496665 4.780630 -3.258078 -3.142838 0.118298 -0.869493 -3.426117 0.596008 10.815928 0.108183 0.323719 1.924003 1.713598 -0.538790 -0.115408 -0.669603 2.979280 -0.041537 5.041146 -2.366269 -0.272943 0.102257 0.067248 6.238451 4.993776 0.522820 -3.589665 1.058891 -4.671760
མཚན 1.805502 4.341210 -4.101998 1.029179 -2.940225 -0.862203 -1.470034 -2.221216 -2.552500 -5.260497 -2.043291 0.177222 1.180502 6.595928 5.594193 -2.583772 0.878504 -3.303844 2.066640 -0.122080 -7.067365 -0.341827 4.818956 2.782434 1.658405 5.930156 -1.279084 -5.141571 1.399911 -0.818661
དྲ 7.939485 1.749753 1.947204 2.956805 2.758452 -0.589413 0.202392 2.683179 10.616511 1.877756 -2.567693 1.351476 2.920909 0.175623 -0.390808 0.221673 -0.428111 -4.262555 0.516081 3.461053 -1.263323 -1.909187 -2.203568 -0.147669 -4.478719 -6.585866 6.619136 -4.696065 1.172253 7.582065
བཟོ -1.682099 1.038962 0.442016 2.724127 4.966674 -1.456182 2.425132 1.250207 3.836969 -1.339147 -8.245217 -1.083002 1.454906 0.953871 -1.545413 0.730343 -2.585811 -3.655079 -4.032004 -0.534918 -1.464103 4.215214 -2.638474 -2.071615 -3.470234 -0.155425 3.621055 1.786756 1.620648 -2.977315
བརྟན -4.872805 -5.756471 5.974493 -3.037641 -2.391314 -0.351115 -3.263373 -3.677556 -1.271090 9.824197 0.127240 -5.237067 5.809142 0.267917 8.206908 4.472610 -0.181601 -6.777215 4.679050 3.104728 -2.030288 -2.708744 -1.328485 -8.534757 -3.570148 -1.216707 2.705719 -9.189448 -2.968257 -1.816004
ཚོད -6.397051 0.854816 -1.487791 -1.010739 -2.598091 0.839707 -4.468156 6.552192 -2.113847 6.214867 -8.265237 0.280125 3.498278 -2.672669 -7.614540 0.590908 -6.275236 7.008619 -5.130154 0.083365 1.491797 -4.788370 -1.910155 2.811347 -4.596851 2.749873 -4.550956 -1.125439 3.502943 -4.434120
འདེད -9.436275 -8.213634 2.728867 -9.756847 2.983574 -4.074228 -1.438786 -13.347051 2.536979 6.568831 -1.404794 -1.059754 3.878056 7.584795 9.238618 6.676278 -1.440015 4.130575 6.994834 -4.940041 8.524053 9.630123 2.530110 -3.915470 -2.679410 -3.777410 3.815948 -1.106762 0.390455 2.121944
ཁམས -1.875534 6.886216 4.098926 4.471573 -5.583076 -6.117971 6.938569 2.191411 -2.180944 5.177234 1.255935 -2.714879 2.513244 -0.387699 2.208308 -6.113924 -3.589368 2.642831 -3.414289 -0.113134 2.631129 4.494496 8.081913 -3.049947 1.659581 2.417704 3.267068 -4.413221 -5.112243 2.072624
སྐྱོར -4.839873 -1.709355 9.614217 -1.655699 4.579570 -0.103650 -4.371057 -1.983875 7.802067 -0.730092 4.254474 -6.220973 1.970807 -4.153839 -3.801466 6.787512 0.941978 -4.202134 -4.473080 -1.640900 -0.107419 15.520849 3.626400 -7.783782 1.777947 4.915319 5.197356 -1.803991 -3.770489 4.939369
མཛད -0.545869 -3.499716 -0.842003 -1.919095 0.432500 2.145155 -1.955475 4.500039 -1.930411 1.812601 -2.139496 -0.617552 -1.906075 1.288393 3.893864 0.340488 6.318925 0.310753 4.324594 -4.803490 -2.718407 -1.203211 -0.150996 2.647100 0.169591 6.925995 -2.844738 0.047081 1.087286 2.045495
ཐད -2.085739 -4.285950 0.893179 -1.649976 -2.471089 -2.892862 -3.646411 1.897200 1.832742 2.776272 -6.711654 -3.613549 0.595430 -0.507699 3.252180 -0.710897 -3.402170 -1.038338 -1.906601 2.789996 1.154174 5.206401 -1.031440 -0.243056 0.833841 1.671482 2.911206 0.611024 -0.201725 2.391060
སྔར 0.045120 -0.248717 4.061663 4.962221 -1.299539 -4.112086 0.949300 -1.483811 0.281843 2.313684 -5.218428 4.456913 0.309683 0.915507 5.222446 2.662103 0.937404 -2.939255 -4.667189 6.465979 -2.533379 3.320054 -1.660469 -1.316274 -0.829600 3.364586 -5.670817 -3.003940 6.305048 -2.635962
དམིགས 2.048470 -0.316044 3.221598 -3.738555 -0.061482 -1.012240 -1.685315 -2.758583 -3.532676 -0.121561 -7.407640 -5.148208 0.909842 0.396156 5.239018 -0.033893 -7.920585 4.180464 -1.283666 1.164887 2.415800 4.022240 2.582019 -1.026825 9.511794 2.566809 9.404214 -5.510720 4.549789 -0.700425
དངུལ -1.308550 -2.727479 1.090142 -5.464785 -0.760007 0.266313 -7.208941 -8.717631 6.175508 -0.889177 -3.392935 -8.512113 3.096930 -0.847930 -4.272221 -1.404671 -4.149476 -6.230031 -4.709035 0.415204 -0.376109 4.888007 -1.466687 -2.829480 -3.626505 -4.171099 -0.439900 5.035716 7.523653 1.000248
འགོག -8.351131 1.257088 7.474335 -3.359508 4.964957 -4.811373 4.455221 8.829386 2.173514 3.430723 -4.614049 -4.842849 1.131505 6.990592 -5.657573 0.982787 -4.903642 -0.883285 -8.708566 6.032906 6.178361 -5.001435 -2.103201 -1.404310 3.387747 5.443085 2.182954 0.088071 -0.126711 -0.237832
རྒྱུད 2.997693 8.332768 0.297891 0.394331 -3.538212 1.346890 1.206154 3.937198 -3.013410 3.266307 1.970389 -0.507424 5.889959 1.485569 -0.610551 -3.070784 -0.142508 1.222556 -2.820979 0.952368 -2.798078 0.264759 0.744126 0.481201 4.484875 0.941776 0.080749 -1.496541 0.828942 0.536692
སི 10.444811 1.601025 -1.361499 0.466196 -3.154747 -2.384055 -0.567671 -3.357095 -1.473566 -0.955582 -1.104076 -2.995212 -7.780955 -2.957074 -7.054726 3.149792 4.931821 -3.336322 -7.474001 6.910284 10.574557 -5.278361 -1.208804 2.251903 0.953614 -8.479903 -2.006386 1.108435 -3.718142 -2.803877
གོང 2.269054 3.249208 0.241814 -2.452259 -1.846833 3.131471 -0.726047 -7.469566 -1.791328 2.056176 1.831147 3.156883 0.657369 -0.751671 5.664456 0.129239 0.891681 -3.543531 -3.693195 0.209911 -2.497469 4.513446 -4.366898 0.763119 -1.487350 -0.937060 -1.381180 -2.491003 2.777107 3.873969
ཅིང -6.608118 -0.321284 1.950629 -1.292879 -0.422117 -0.159211 -3.884293 0.924223 1.135972 1.676643 0.448236 4.698130 -1.384180 1.179722 0.795453 -1.396163 3.290414 -0.315405 -0.637692 0.026912 -1.916661 -0.452397 -2.290586 0.096826 0.215308 -2.578724 -6.304893 0.774514 -3.111581 -0.505944
རྒྱུས 7.897840 1.917118 -4.385297 -1.423903 -6.352593 2.438380 -4.465252 4.219610 -3.229377 -6.567670 -4.571072 7.137960 3.158614 -1.342255 1.743565 -0.931861 -6.021904 0.330027 -2.194246 -5.909160 -3.457031 0.999371 -9.563798 1.735036 0.934251 -0.910264 1.576586 -4.151742 1.992254 1.672149
མཁན -3.184156 -2.785784 1.609702 -1.563473 0.215864 -1.482532 -1.571087 0.009969 0.743098 -2.753266 -0.457874 -3.049854 4.623352 -3.424221 -0.142395 -5.095836 2.141331 -0.874005 0.815350 0.827224 -2.087181 4.806672 -2.057251 -1.628478 0.860057 2.286753 -4.644639 3.205659 -0.122141 -0.076574
གཏན -5.959730 1.696100 -0.116501 -9.492218 1.468847 -1.658700 -1.241343 -1.184765 -1.706237 5.879001 -7.639155 -8.379746 -4.882333 0.672467 -2.562437 -1.592993 -5.142670 -2.332830 0.834512 0.458601 -11.132310 0.883196 -4.863697 4.177341 4.663393 0.321941 5.784773 -0.717132 -3.275315 -1.129503
སྦྱོང 4.409969 -3.251558 -2.506047 -1.175721 7.434962 1.495870 -0.031019 1.261674 -2.170019 0.299479 -2.606555 1.608170 1.502328 -1.120939 2.626066 1.647749 -2.381028 6.220362 1.177468 0.084174 2.697176 7.303028 -1.368202 -2.190301 -1.001115 14.508224 -2.270832 4.265091 3.051980 -0.238146
སྲོལ -2.065839 2.429003 0.910456 -3.379863 1.657374 -4.045130 5.086048 3.559237 4.550201 2.319734 -4.823865 5.519535 2.947758 3.131921 -0.581144 -5.857445 1.446825 -1.801817 5.462259 -0.125390 -1.738277 7.158531 -1.135041 -0.477968 2.369327 -0.689532 9.664588 2.009078 2.703917 -0.297981
དབུལ -1.634966 -8.222404 3.347545 -0.409539 -5.839932 3.014666 6.296777 -6.917898 -9.125427 3.465684 -9.506248 -7.391643 1.138189 -2.139134 -6.619242 3.357101 1.219504 -0.006660 -3.052686 2.239006 -6.612553 9.834620 2.207521 -7.682673 4.125265 -4.717812 -3.943173 -2.933109 5.023787 -3.197513
འབྱུང -0.807471 3.117285 1.256852 2.013921 -1.296171 -4.099857 1.908719 1.152393 1.690408 -1.881258 -4.181729 -2.007201 4.461007 5.344782 7.461536 -3.167382 2.351823 2.023866 -2.051601 -1.313979 -0.904221 -1.724086 0.635093 2.864764 4.465265 -0.428774 4.615581 -4.595203 -2.255494 -0.015297
དར 0.436727 -1.587646 -3.671496 5.787337 -2.893196 -6.379649 0.999080 5.882814 0.954960 6.121585 -0.770804 1.275796 4.410327 -1.089231 2.726330 -1.047985 1.120999 2.462124 2.223622 -6.057611 2.703770 0.625599 1.247017 -3.982559 -2.743865 -0.688489 -2.200759 -1.491272 -3.301990 3.697858
འོ -1.727374 1.077040 1.025735 -2.841561 2.610325 -1.579385 -5.551597 0.146419 -0.468997 -3.987833 1.380663 -0.167821 2.078395 -0.510607 2.992064 -3.219938 -0.629697 3.576835 2.526993 0.116884 -2.873737 -0.425652 0.593595 1.165250 2.472088 -0.530972 -3.039942 -2.732349 -5.172538 2.709151
དཀར 2.223131 3.025626 2.747148 7.425063 -0.893723 0.081185 1.729349 -1.994741 -4.750648 -5.786575 2.036162 -0.153449 6.771986 0.412682 -5.757600 -3.171165 2.469321 -0.903409 1.172041 -5.289219 -1.246133 -2.915324 1.438940 -2.993185 -0.585383 -2.946162 -3.077986 -4.981465 -1.186468 -0.662067
འདོད -4.647266 0.110149 0.996942 -1.560489 -0.406082 -5.313268 -4.059520 1.009875 1.265986 -2.416563 -1.310119 -1.027755 -0.048188 -1.777990 5.288508 -3.724761 -0.345109 1.038958 3.757832 5.470730 -4.005415 0.755746 0.527343 -1.640592 3.954961 0.886137 -2.642171 -2.127225 -0.827868 -1.598323
དབྱང 5.334169 1.062514 -9.708731 -5.341427 -10.506971 -6.411447 -4.492253 1.697968 8.468571 -5.707163 4.944222 3.943076 1.631117 6.768233 -5.995623 8.150437 -1.426940 -2.600924 1.048688 -1.723882 11.309945 2.270853 5.196547 -0.847803 -1.747009 -0.829226 13.159717 6.247115 -0.661296 -3.871444
སྦྱོར 1.506535 -1.367852 -0.893820 -0.146108 -1.374063 -2.312212 -5.318189 -0.214410 7.250156 1.100603 -3.166739 -2.110140 -1.604564 1.541875 1.186860 -2.439271 -1.618937 -3.633205 1.019252 0.507485 -0.352908 5.398863 0.109342 0.619118 3.491110 0.751500 0.173492 -0.358552 -9.975720 -1.697514
ཅིན -1.231478 -0.297223 -5.792688 -0.167568 -8.012245 -1.446322 3.101432 2.947827 -0.561333 2.744053 8.574375 1.175417 -7.610188 -4.271790 -6.036551 8.009205 7.052786 -4.849325 6.906750 1.079451 1.197440 -4.742467 -8.870758 1.999821 -4.104429 -0.375671 -3.682584 1.250224 -8.967237 -1.122754
འགོ -4.208872 -4.013774 -4.403695 -3.778912 -0.787377 5.756955 -0.272209 1.727294 2.712648 -0.181720 0.075677 -2.319058 0.277474 -7.234103 2.465982 6.968193 -0.449257 5.400869 -5.297760 -1.340362 -0.062818 -1.942989 0.528591 3.461216 -9.894660 8.824142 -1.771276 3.220701 -4.955796 -5.749099
ཇུས 1.123933 -3.357924 -2.646086 -1.132007 4.160525 0.274100 -6.657238 5.391152 3.596301 3.758815 -5.047731 -2.307187 -3.689609 -3.340361 -2.815592 2.777718 4.702223 -8.907909 -5.512694 2.587180 -2.093594 0.207713 -3.250689 -11.810277 7.703670 1.004408 13.731431 -3.444324 3.284247 2.852774
ཁྲོད 2.731563 -1.251480 2.582583 2.185112 -0.616344 -0.278443 3.083079 0.211396 2.184289 1.727243 -2.160269 -0.214041 0.414286 -1.900955 3.598536 -2.805538 0.560687 -0.266782 -0.338643 0.257125 -0.641191 2.611162 -2.305766 0.471816 0.119050 -0.151360 0.103617 1.745586 -0.163456 0.909747
རྐྱེན -4.427866 -0.912112 -0.892581 0.275043 -5.346484 -3.869655 -2.938381 4.940784 2.266050 -1.193263 -6.115538 -3.851854 4.199636 2.638433 0.097495 5.527687 -2.296571 -4.888285 -3.333080 3.994317 -4.202000 3.501607 -7.021627 -2.473016 4.855476 -3.682222 -2.876993 -2.854916 -0.592778 -1.925512
འཐུས 2.339774 -4.587275 1.437670 -4.440361 -3.038115 4.141941 6.291930 2.483538 8.353231 2.720940 -0.122442 6.007354 -5.074072 -3.552486 -1.450731 1.302782 8.167685 -5.519388 -0.656449 5.330237 -8.859857 3.129905 0.827705 -9.039205 -3.633328 -2.027632 -0.859532 1.774508 3.911146 -4.192510
ཇེ -1.863856 -5.043376 1.291769 0.170675 1.979882 -4.829258 0.554633 -2.575623 5.799282 10.099538 -0.472683 0.852756 3.035510 0.950312 8.465935 4.261013 -4.714202 -3.387124 -3.703192 5.350981 -0.433216 0.835692 0.909952 -4.299902 0.897538 -5.493723 -11.747236 -3.557921 3.837615 8.428625
སོང 0.419917 -0.083085 4.006645 -0.998361 -0.495832 -4.055311 -0.328279 -3.995397 1.060604 0.586166 0.313269 -0.152075 -0.689428 3.528698 2.972768 1.619210 1.033162 2.643408 1.219012 1.912647 -3.476134 -3.326563 -3.590459 -1.457047 1.717734 -4.633060 -8.378978 -3.967872 3.975324 1.585001
རྗེ 1.352663 2.067801 3.169794 1.919291 -1.490061 2.358246 -2.480155 3.152185 -8.998152 -0.273715 3.616776 -2.437716 5.878374 -1.225253 3.053551 -1.765623 7.097683 -7.821517 7.394610 2.513749 -0.202876 -4.178658 4.490127 3.792027 0.589807 6.102854 -3.914402 -3.779512 4.060764 2.186889
བརྗོད -0.442550 0.429950 -3.744380 -2.630215 2.485627 0.418783 -1.793214 4.823336 -0.407153 -5.237497 -2.835229 -3.602463 1.217425 1.694279 2.538852 -3.106836 0.639180 4.557623 1.934952 -0.010115 -3.216027 -0.270418 -0.777635 1.387079 8.338286 4.176697 -0.364466 -3.852149 -4.919133 2.511159
མིན -0.822365 2.900187 1.533047 -0.291027 -1.419240 -4.185020 -0.589574 0.464748 -1.131137 -1.923961 -0.982709 0.741107 -0.495278 -0.382565 3.312452 -5.013042 -0.071037 1.490182 0.557947 0.945691 -1.806597 1.448065 -3.024266 0.883749 5.608920 -0.771313 0.100212 0.850842 -3.196785 -2.519399
《 3.687030 6.263247 -4.450805 2.951793 -1.107663 4.872274 1.770855 4.515588 -2.109344 -1.613507 0.023514 2.668423 4.848074 1.392463 -4.603247 -4.267563 1.386809 -3.016625 3.116009 -4.545920 -0.959219 -0.131175 -0.914658 5.730831 0.717911 0.926679 4.970095 1.410728 -2.717276 0.941621
རབ 5.071056 3.517960 -5.641512 1.839081 -2.764893 -0.469074 -1.591021 0.309876 0.389095 3.987123 2.606236 2.568661 5.148480 3.453965 3.917106 0.404409 0.371517 -0.098119 2.291342 0.996454 -3.365894 0.927703 2.013702 1.091247 0.774385 6.016716 -9.044122 -7.332092 -9.670022 -1.037182
ངེས -7.509057 0.270556 -0.154462 3.821800 -2.709607 0.711831 -1.127329 1.477410 3.730211 0.480021 -7.299067 -2.282560 -1.108639 1.001626 3.779734 -0.261256 3.110342 4.181305 4.295481 5.060804 -4.396591 2.381425 2.510342 1.376483 6.354337 -3.097154 -1.150594 -2.276782 1.358900 -5.142386
དགའ -1.587585 -0.396538 0.518255 -0.046652 -0.586509 -0.247755 0.611582 2.705717 1.851943 -5.209300 2.790974 -1.226011 3.132418 -3.941392 5.735503 -5.129966 1.594058 -0.856735 3.865322 -4.891367 -3.207257 0.416233 5.320307 -4.183522 1.170830 1.655849 -5.173293 -6.163690 -1.922185 2.495920
ཐོབ -2.677291 -2.694095 5.080013 -0.791450 1.726221 -0.453587 -1.917097 2.201483 0.483552 -4.251512 -2.990959 -3.234967 0.958759 0.191259 6.491313 -2.873649 -0.541534 -3.163214 1.261390 -0.718618 -2.539151 -1.334819 2.895418 -0.035223 -0.278856 2.709723 -4.548720 -1.758873 0.894753 -0.209056
བསྟར -3.174914 -3.880810 2.935113 -4.150989 17.699944 4.637934 0.505140 2.364581 -0.099541 3.263712 -1.588207 9.484416 -6.999583 -3.996757 -7.660776 -1.328222 -2.374962 -1.126266 -1.967303 2.295341 1.548018 0.052116 4.644630 -9.071838 4.867692 11.386803 8.474426 -4.111591 0.420854 2.791544
རིན -2.031009 -1.225727 -3.299593 -1.602127 -2.439146 1.490815 4.585459 4.537271 -2.465196 -3.896076 -2.468088 -3.053771 5.432706 -0.258096 3.769783 -5.969063 2.157635 -5.423098 0.141056 -0.464664 4.477924 -3.974933 2.303911 0.281712 -4.899656 -3.102711 -9.894320 2.257998 -0.098255 -1.711592
སྣང -4.355849 2.151507 -2.437029 0.838869 -2.557073 -4.595832 1.316128 -0.503487 -0.084018 -1.978344 -1.472817 -0.663693 -1.242065 0.921346 7.077291 -4.735635 2.476679 0.022185 2.496966 1.236690 -2.789721 -2.482883 -0.830694 -0.634405 6.264440 -1.585704 -2.247008 -5.240011 -0.201864 0.000716
མགོ -1.765898 1.082375 -1.496369 -1.439373 -1.025777 3.417016 0.445769 -0.698720 -2.179778 -2.886487 2.214347 -2.467780 1.697433 -4.670997 0.032215 2.430988 -1.214375 5.499919 -4.875302 -1.262173 -2.006507 -3.212434 -0.823349 3.487833 -5.858062 6.510478 -3.335630 1.461117 -3.082035 -3.700723
འཚོ -1.080707 -1.208143 2.910362 2.178487 -2.794288 -4.262489 6.394459 -2.588526 4.644319 -2.155954 -1.963506 -2.230893 1.636610 0.665412 7.375468 -1.488587 -0.643526 -0.657519 -1.220278 1.728793 -3.109306 0.470672 -1.791860 -3.663336 -1.867460 -1.583562 2.799441 -3.258422 3.941637 2.529551
》 2.102012 4.013721 -2.079644 1.922493 2.879330 8.126991 0.987250 4.725081 1.573496 -2.461489 -2.896423 -0.335501 3.418054 2.985798 -6.214272 -1.993608 4.609512 1.261073 2.363396 -1.900344 -2.089823 -0.081557 -2.063219 9.408844 2.332746 3.835977 6.604379 -1.230412 -4.951176 3.020780
ནན 1.920761 -2.048514 -5.135321 -8.996934 3.964723 -2.795552 -1.638237 -2.288955 -8.583971 3.688080 0.970896 0.322048 0.612030 4.634792 -9.758717 2.918644 3.247876 -0.708862 6.595075 5.216869 0.704674 2.176411 -3.034748 -8.857037 -2.540626 6.188485 1.512383 -3.043739 -3.203144 0.416288
སྟེང 2.229020 -0.643805 0.250306 0.175916 -0.102809 3.108884 0.898573 -0.891852 2.036195 0.344860 -0.539436 0.307839 1.318289 -0.105678 -0.603744 -0.822317 3.322090 -0.359414 0.319889 -2.435310 -2.398734 -2.582633 -2.803970 3.348728 -0.210097 0.743103 -3.243565 -1.291815 -1.114043 -0.468502
ཅེས -3.492010 1.386025 -1.295966 -3.062218 2.450526 -0.356275 -7.068791 1.312067 -3.630576 -3.541823 -1.000878 4.353810 5.633168 -1.239411 -1.117433 -4.798656 3.353408 5.022404 3.877051 1.923534 -7.437565 0.110146 4.361086 0.556950 4.186252 -3.864384 -0.306245 -1.246299 -2.638651 -1.201782
འགོད -1.184645 -0.919970 -0.046634 -1.387287 1.899233 4.062383 -0.735691 -0.687651 5.813688 3.571553 -7.269618 5.535164 -4.796094 1.567126 -7.752129 2.556270 -5.342596 2.373559 4.493385 1.784489 -2.712331 7.586286 5.951464 3.754181 1.438665 -1.104838 4.711103 -4.732744 -4.969081 -0.388661
སྟོང 6.467142 0.191544 3.861436 1.232239 -3.194721 6.506903 -3.140927 -5.775702 3.505070 -1.910939 1.698904 1.544546 0.178089 4.066523 1.106738 -0.887874 0.186720 -3.490357 -1.527959 -1.389434 -4.389200 -1.613983 3.728501 1.976168 7.523130 -1.238401 -5.774796 -3.031385 0.000121 -3.001623
བཟུང 3.194386 -0.624265 2.202565 -5.346716 0.279178 0.199251 -0.534187 -0.117410 -1.294863 0.377934 -3.444733 -5.879912 -0.047146 1.483048 -0.895960 3.722373 -0.406997 4.420738 -0.242299 -1.497236 -3.256284 -4.698209 -2.749204 2.630869 2.855629 1.648753 0.802492 -4.892536 2.665226 0.047231
ཁོངས 3.150704 0.619953 1.745237 0.776123 -10.007854 -1.538174 1.038624 5.386107 1.042592 3.425102 -5.384576 -4.300890 -4.768830 -1.728196 -4.725046 -4.587529 1.114198 5.033774 -6.487938 7.101565 0.227631 4.019920 1.813457 -3.143671 -4.934567 -4.444482 0.984790 2.754755 -1.449461 3.613749
ཟབ 4.128546 -4.648329 -1.463992 -4.919543 5.661057 -10.199134 -7.023363 2.033408 2.612247 10.178836 -1.839541 2.940693 3.609854 0.402797 2.128289 2.924212 -2.020499 -5.481339 1.485605 3.126689 -1.365790 1.600850 -4.908444 -4.640980 -3.793787 10.309807 -7.068586 -7.077871 -4.495016 3.360903
འདུག -3.103974 -0.024143 -0.114502 0.737625 1.956285 -4.645680 -1.579591 -1.940325 -1.685500 -3.091881 -0.124916 2.028149 -0.419081 -0.471720 0.229991 1.172618 1.477317 3.300779 2.255016 2.468615 -9.505866 -0.843056 -0.480384 -0.310560 3.498731 -2.444676 -4.759702 -2.636161 0.245471 0.849501
ཡིས 1.186529 -0.661013 -0.462966 0.627149 -0.150305 0.540250 -4.910519 1.699289 -6.192904 -1.787725 2.684879 -0.244330 -4.212105 -0.221148 -3.786680 -1.071996 4.630402 -2.888926 1.145604 -1.475473 1.430817 -4.087530 2.638529 1.457367 -1.158638 -3.309102 1.041529 6.943356 -7.859529 -0.799914
མིག -2.165552 1.927159 -2.137029 3.964851 -0.588140 -1.580419 1.949754 -0.950710 2.702682 2.993173 0.054546 1.140600 2.720074 0.552167 -1.702648 -4.493608 -1.195319 0.126823 -2.607429 1.953790 -2.479131 -6.716985 -1.457928 -1.089940 3.785336 -1.427792 -5.494728 -0.696953 1.344268 -2.591878
སྐུ 2.651098 1.171334 0.841641 -1.266018 -6.778566 1.665626 0.512626 0.419144 -1.827185 -1.102247 2.544810 1.475493 2.719753 3.869155 2.854491 -3.207909 7.668163 -3.737428 2.763611 -3.648993 1.460368 -4.882791 2.845168 6.014346 1.024235 2.359044 -6.041756 -3.836158 -0.944000 -0.674109
ངང -8.291130 -4.603329 2.982106 1.248775 -3.255336 -0.520126 0.531334 1.869497 0.416101 7.457272 0.660134 2.770241 -1.714215 1.312294 5.563329 -1.255221 0.151515 -0.287777 1.512690 2.159848 -0.292487 -0.908341 2.126450 -4.562409 -0.977795 0.546860 -0.959856 -0.949590 0.437763 4.350300
ལུས -0.672288 6.753383 -1.514294 2.903015 0.160134 -3.070488 -0.165079 2.936331 1.693856 1.714906 -1.249512 -5.615860 2.806663 1.937409 4.237761 -0.944019 -0.026977 -2.819203 -0.092688 -1.792741 -1.741715 1.934546 -0.159642 -0.540057 0.337710 1.322106 -5.628989 1.707859 1.582144 -2.356224
ཁེ 0.776172 -0.726553 6.919988 -2.937641 -4.653646 1.317331 1.797821 -1.396571 3.013466 -1.649490 -3.748365 -4.539667 -3.332882 -5.209388 1.728524 -0.748318 -1.806280 -5.647294 -5.087846 7.321310 4.553135 5.191867 1.021526 1.023601 -3.032546 0.056596 -1.690254 4.027348 2.905873 -5.840159
འདོན -2.169211 -6.585610 0.365413 1.976117 8.110557 -2.521728 -3.069222 2.898431 -1.370100 -4.102201 -6.352849 -0.341049 2.846493 -1.181141 2.267238 1.584035 -5.545457 -2.593949 -0.790586 3.354428 -0.400160 6.337735 -3.685930 -0.008315 -1.294747 3.138170 0.873689 0.881041 -4.525272 7.627452
བརྒྱུད 2.570719 -1.297597 -0.111893 -1.591124 1.143672 0.900922 -1.182910 1.670902 1.431607 1.993769 -0.198473 3.344076 2.859642 0.582310 -0.058905 -0.635984 -0.892911 0.123118 -0.127312 -1.151198 -1.617474 1.850788 -3.716464 1.296229 -0.103913 2.794017 1.502858 2.181261 -0.524817 2.975929
གསུངས -0.819546 2.340399 -2.433880 -1.409760 0.904447 0.205665 -3.522905 1.970697 -0.965954 -7.115592 -2.037460 -1.720614 -1.808753 4.104692 1.217572 -0.445509 4.885780 7.307451 2.627959 4.147604 -2.991813 -0.603493 0.754250 1.468514 4.918305 2.592757 -1.940255 -5.912995 -2.957373 2.393212
རྒན 4.865991 0.664807 -2.389689 -0.072941 0.706945 -2.350186 2.472214 -5.779225 -3.686643 -8.071534 4.942505 -2.991802 3.273622 -1.196676 2.626048 -1.149128 0.208782 -3.431547 4.648070 -5.714056 -2.834498 5.560945 0.576614 -2.053428 -4.345089 6.947908 -2.059300 3.643763 2.243617 0.798635
ཟིན 0.101147 -0.778900 4.578052 -3.409537 2.692242 5.977308 -4.728398 -2.249952 4.186206 -0.429333 -5.443153 1.777398 -1.804364 5.884263 -3.472809 0.237614 -4.240234 2.001122 -0.016950 -2.213984 -4.743080 0.618360 -0.030568 2.021596 0.855701 -1.724039 -2.336896 -1.658358 0.992251 -0.891604
ཅིག -0.155656 1.328930 0.994246 2.142913 4.975734 -5.610750 -2.067725 -1.315579 2.509372 -1.077324 -0.017064 2.306517 4.174476 -0.338424 -1.666550 0.824929 2.402547 2.214720 -2.173092 5.993608 -5.173462 -1.436377 0.753104 3.150884 3.853544 0.288573 -4.512869 0.516285 -2.359923 -3.244614
སྙན 1.827635 2.020278 -3.467502 -3.449704 2.432761 2.098488 -2.167109 5.848548 5.291969 -4.044069 -1.975822 -0.217845 5.482744 -4.949524 -0.852745 -12.195275 6.598989 -1.671895 5.324418 0.509871 -3.777164 -2.268589 -1.375824 3.437499 -3.126230 2.411217 -1.359103 -3.322003 -5.439628 1.437337
ཁྱིམ -0.017987 -0.160953 6.916243 0.337855 0.076388 1.369540 7.280651 -3.354141 3.006447 -1.817359 1.922405 -0.544840 0.066478 -5.301925 -4.909039 -3.920471 2.967357 -0.156211 1.664268 5.013382 -6.433203 0.042073 -0.052666 -5.729695 0.712591 -1.196231 -5.481710 -0.357111 5.841732 -5.158316
དྲུག 6.106510 -0.438018 1.309561 -0.918472 -1.970841 6.898733 -3.234677 -1.577578 0.028291 -1.349728 0.154862 0.246565 1.541134 -0.064819 -0.323346 0.921685 2.692185 0.215915 -1.074839 -4.464160 -2.436887 -3.290220 2.970910 2.869085 3.939672 -1.697368 -4.952504 -2.196818 -2.317498 -4.944014
བྱང 4.764193 6.490510 2.602522 6.795108 2.099906 2.722931 0.793387 -3.293753 -4.019983 4.392333 2.426121 -5.197832 4.535749 5.868065 2.993565 1.042755 -0.505274 -0.862002 -0.513930 -1.808131 -2.726007 -1.516367 -0.602715 -4.134917 1.864231 1.370172 -0.782986 0.205230 1.972284 -1.163506
འཆར -3.649795 -4.579216 -5.637043 -3.736872 5.258564 8.634529 -5.817726 2.256485 3.205599 6.038977 -5.776181 -4.174248 2.592372 -4.857897 -2.364392 -0.229948 1.008816 -0.598430 1.242036 -7.731364 -4.783980 -2.275660 -4.858818 -1.836050 5.612010 -4.304369 7.025776 -0.000233 -3.526019 -1.166322
བསྡུས 3.208173 0.832709 1.831831 0.238524 -0.335640 1.449021 -3.867967 3.713382 -0.747848 4.027065 -4.545919 -1.514100 -3.237317 5.677878 1.363056 1.685552 -0.092864 1.008002 -0.586711 -0.853881 -0.270605 1.885713 -2.021535 -0.660380 1.745042 5.461711 0.851514 0.338412 -0.547748 -0.913032
ཚོང -2.561369 -2.392410 0.303399 -0.245647 -1.154656 -0.616381 3.752018 -2.269717 4.351511 -0.204268 -6.366429 -3.298062 -3.337075 -2.098526 -0.401552 -2.217091 -0.133945 -4.499599 -7.186729 -1.414016 3.585819 3.413828 -4.535912 1.934370 -2.841986 -2.526752 0.604544 2.452643 0.580600 2.350589
གློག -1.495911 2.220177 -7.661089 7.230827 0.117959 0.554072 0.645396 -0.823806 6.859537 -0.751237 -6.547552 4.299673 -0.790722 -0.581481 -1.296408 2.037049 2.071426 -3.860051 -2.280530 2.698625 0.583427 -0.137495 -3.194293 7.303458 -5.269298 -9.398147 0.165878 -1.006181 -2.012679 3.589678
ཞབས 1.719061 -2.882154 3.001878 -2.321903 3.774656 1.136418 -2.700519 1.145986 6.357942 2.205698 -3.763257 -8.325562 2.607691 -5.906928 1.342002 -10.241804 1.139457 -6.429851 1.920630 0.737146 -1.314021 1.836836 3.754107 -0.829648 -9.538556 3.119715 -0.629083 0.232099 -1.643341 5.529276
དུང 0.832603 -3.067341 7.282574 -0.602665 3.374344 2.052432 3.916286 -10.662408 5.778847 2.380020 4.101008 -4.352878 -0.537270 8.348805 -1.178317 -4.936214 0.079280 3.749326 6.582169 -0.788641 -2.586701 -5.147655 0.641208 1.704303 2.287155 -5.762072 -3.388897 7.451032 0.178104 0.232889
སྐྱེས -4.135386 4.125311 2.798965 0.095167 1.594803 -3.981059 3.521697 -1.062452 -0.856367 -3.765654 2.078461 0.062346 3.337323 2.572561 5.871414 -1.208466 1.586505 -0.778748 0.198347 1.223805 0.579998 -1.950506 1.294051 2.232265 2.557766 2.792829 -5.028404 -1.913842 1.902283 -2.336288
མིང 2.665657 4.116826 -2.847237 1.885499 0.350553 0.499386 -2.070637 -0.028324 2.162971 -3.291593 -2.706368 -3.092790 0.748441 0.985521 -3.580047 -3.290794 2.806284 1.776056 1.129734 0.010354 -4.579501 0.949248 -0.945461 3.984516 4.503130 -0.209288 0.290967 -0.460788 -3.378357 -1.243425
དང༌ -1.992509 1.028248 2.628316 -0.038950 1.429919 -0.224280 -3.283334 0.474041 -0.920129 -1.744601 0.674135 1.433454 2.745736 2.744127 2.793007 -1.631656 0.837553 0.110614 0.564535 -1.214221 -1.048367 -0.576912 1.337049 0.882987 1.483218 0.085579 -1.611455 -0.997268 -3.175802 0.328797
ཉེ 0.410358 2.170613 4.541064 0.450432 -4.617072 0.657611 -0.586876 -2.663044 -0.471949 -1.851718 0.453711 3.812341 0.243917 -0.939800 -1.502431 2.231995 1.270236 -0.700397 -1.516649 -2.722033 -1.025529 -4.413484 -2.715303 3.128609 1.229017 -2.475038 0.686528 -6.453088 5.787554 -0.480402
སྔ 5.523256 4.030491 -0.159170 0.303865 -0.282844 -3.461828 -1.548508 -1.131100 -0.965003 4.993239 -1.949801 0.053113 -0.367843 1.118060 -1.697256 0.346937 1.334698 1.252483 0.736463 -1.755485 -2.720117 -6.015287 -2.885905 4.306764 -0.046091 0.628002 -5.986010 -1.879692 3.770484 -3.022180
ག 1.965637 4.080954 3.639843 -0.664014 -0.465851 -5.852511 -0.669940 -2.303195 1.722055 -4.522118 -0.161178 -1.080378 3.419104 -1.753327 -0.363144 -5.349463 0.740489 3.403011 0.591319 -4.503640 -0.586239 -1.335690 -0.937918 3.570419 -1.742069 -1.353117 -2.688045 0.206728 1.724841 -2.567437
