nn -0.508637 1.520844 2.408278 2.134647 1.303373 -0.348946 1.201200 1.793741 -2.419599 1.041468 0.475133 0.813009 -1.536773 -1.738218 -1.228934 2.560846 1.342646 -0.304921 -1.633443 -1.418190
ww -0.695784 0.131963 0.487606 1.746315 -0.329163 -2.545881 -0.469727 -0.221283 1.316685 -2.429903 0.704392 0.674438 -2.781785 -2.499451 0.753428 -1.350616 -0.331716 0.689111 0.753977 -4.411523
gi 1.496066 1.419493 1.035956 0.773703 -1.141804 1.195575 0.364083 2.734285 -1.479043 -0.864881 -1.077142 0.761242 -0.657997 -0.573585 0.054177 4.024311 -0.108376 -2.478889 -1.612664 -3.271023
vt -3.727516 -0.808769 1.394120 2.223409 1.843458 -1.483613 1.833250 -1.028054 -0.794772 -1.436420 3.100624 3.282730 -0.811741 -2.218727 1.567351 1.674846 0.498037 -1.430172 -2.427495 -2.390244
ls -1.511060 -0.341789 0.268852 0.487924 0.599708 -0.453693 0.280908 2.760510 1.015511 -1.284451 -0.732089 -0.108381 -2.859787 -0.364539 -1.284680 1.338546 1.211766 -1.747049 -2.478174 -2.241354
rz -2.220491 1.229457 0.965661 1.461917 1.256530 -1.032103 1.016603 2.997440 -1.546916 0.687016 0.371211 -0.646469 -0.373664 -2.989878 -1.056391 -0.451716 -0.064710 -1.180378 0.545038 -0.856226
vi -4.108523 -1.871593 -0.179682 0.152500 0.648082 -3.042951 3.596933 2.878888 -0.836328 0.240037 1.982551 2.871727 0.920613 -2.441376 2.927445 0.902625 -0.389491 0.898169 -0.525779 -1.439757
nv 1.764762 1.265976 3.158969 3.047043 1.463931 0.076898 1.390032 -1.301341 -2.039510 -1.509601 2.869219 1.960207 -4.213933 -0.620418 -2.029919 4.274216 0.707235 -1.905914 -2.797627 -2.474709
cd 2.194131 -0.570690 2.864436 1.067260 -0.161875 0.152330 0.194413 0.703890 -1.360915 -0.433018 -0.416258 0.324007 -2.284124 -1.049824 -1.182050 4.164715 1.485951 -3.304315 -3.246163 -2.628495
cn 0.613462 0.217561 3.540212 -1.657337 -0.110359 -0.205104 1.318157 2.278509 0.656576 0.495174 0.803295 1.906991 -4.874640 -1.910970 -0.293488 1.035891 -0.674300 -0.410564 -3.010518 -1.506372
vu -1.538502 -0.133375 1.797692 0.991487 3.949353 -0.822944 1.223745 -1.850603 0.558606 -3.678680 2.577501 2.180864 -4.665691 -2.393942 -0.517395 1.494036 -0.293394 -0.006234 -1.555465 -1.921483
nt 4.074234 5.896134 -0.398207 1.825729 -2.421469 -0.774146 -0.223133 5.468555 -3.436513 -1.117213 -5.868524 4.714614 4.616635 4.480648 3.022819 1.973041 -7.627600 1.337419 -2.880720 0.380217
as -0.245102 0.550756 0.000073 0.502433 1.572764 0.189451 1.945017 1.155944 -0.728895 -0.461328 3.967083 1.372768 -3.123894 -2.348353 -0.094838 1.776279 2.188301 -1.315262 -0.469676 -2.463533
mj 2.582079 3.423675 0.294129 4.261580 -6.282731 -1.287972 3.051225 4.686433 -0.558376 -1.288574 -2.587397 2.356641 2.364169 5.771686 2.206323 3.252259 -5.752109 0.555964 1.143788 -2.676816
bo 0.029765 -1.251532 -0.276288 -2.615579 1.644997 1.122455 -1.393157 0.835596 -1.992794 -1.110638 -4.060833 0.646120 -0.093008 -0.505396 -1.444619 3.163518 -0.163645 -2.306456 -4.695284 -3.986372
ld -0.771528 -0.870144 0.631599 -0.819551 1.588452 -3.550430 0.583897 3.060434 2.182983 -1.038830 2.706681 2.631650 -5.311613 -2.156648 -1.458486 -2.146855 2.728697 -1.049725 -1.108544 -1.094379
vj -3.018777 0.639403 -0.525582 0.953427 2.066600 -3.222287 1.537186 2.108525 0.501996 -4.440548 -0.238567 -1.368047 0.993000 -2.931953 0.749873 -2.699431 3.258501 -2.967036 0.208982 1.562122
fg -0.237586 0.155639 1.354914 1.066218 1.291652 -0.256606 0.274731 0.948023 -1.287025 0.115370 0.348405 0.010569 -2.001403 -2.201131 -0.858880 1.161327 0.649352 -2.496365 -2.243299 -2.026280
na 5.969831 2.187763 2.598598 2.952115 0.123923 4.254153 -6.574644 -2.716378 -5.691790 1.869727 0.561055 -3.553482 1.332467 4.842030 -3.199846 8.576508 -2.674875 -3.706168 -4.382318 -4.755826
nr 2.414245 1.780340 0.910613 -1.881700 2.800645 5.302416 -4.071126 0.084275 -0.769193 2.630999 0.541170 -1.038306 5.361119 0.693481 -0.965785 3.691982 -0.129754 1.141186 -2.692409 -3.935409
vc -3.794182 -0.168427 -0.004296 0.126135 0.619433 -3.718685 3.433244 3.295833 -0.938132 -3.547394 0.759319 -1.289027 0.234877 -4.430219 1.385774 -0.456500 1.464475 2.270076 -0.608031 0.844572
ns 5.203880 0.998844 1.536461 2.392031 -1.960221 1.545339 -5.537221 1.473716 -4.674913 1.776652 0.113272 -2.355638 3.350461 1.931646 -1.359056 6.527813 -3.015938 -1.305484 -2.535453 -3.066892
nf 0.194166 0.884179 1.295200 1.770018 -0.848800 -1.274836 -1.540306 4.582182 -1.892953 0.997782 -0.538465 1.024763 1.976980 -0.617986 0.562646 2.986445 -0.938183 1.000658 -1.077674 -0.765732
rr -5.953443 1.734577 0.195721 1.456819 4.458193 1.324666 0.814053 2.589380 0.050841 3.043695 0.720217 -0.332558 1.351424 -2.512112 -0.705074 -2.097070 -0.391065 0.897531 -0.801455 0.330067
us -1.010593 -0.895472 1.562138 1.935981 0.082076 -0.328011 -0.290267 -0.132964 2.503585 -2.273170 2.485960 2.151481 -4.726374 -2.701913 -1.578641 -1.217684 -2.377846 -1.420358 -0.950343 -1.128958
ci 0.406144 0.709835 -1.033919 -1.820575 -1.082001 1.634088 -0.645115 2.043109 -1.998806 -0.427918 -3.009091 -1.034697 -1.307884 -3.612515 2.910105 1.610822 0.838450 -1.062872 1.463650 -2.434295
dw 0.406000 0.309031 3.089664 1.754604 0.587308 -1.198201 3.497782 0.948213 -0.305594 -0.426395 0.912709 1.088230 -2.009414 -1.521863 -1.223933 2.334505 -0.617528 0.707390 -1.268931 -3.292187
df -6.544510 2.364527 0.001809 -1.144131 2.485010 -1.674865 1.690763 3.720307 1.825173 -1.072999 0.770506 -0.345295 -1.948969 -3.222251 -0.886767 -5.308248 1.715576 1.207476 2.450091 0.821301
dc -0.820423 1.113960 -0.502321 -0.325878 -0.220816 -3.080635 2.349585 3.480149 -0.772525 -0.253790 3.817372 1.397277 -3.293076 -2.163842 1.821048 -0.864556 1.796885 0.342258 0.048617 -1.290234
qj -1.949272 1.265280 2.130265 1.211991 2.345812 0.578939 0.462440 1.424981 -1.357110 1.729138 1.165564 -1.017933 -0.952964 -1.900768 -1.593927 1.474397 0.925352 -0.980762 -1.301640 -2.608687
jg -0.097840 0.151681 -0.362691 -0.920573 -0.695778 0.227863 -1.159314 3.638361 0.524196 -0.822088 -2.206886 -1.475969 -0.355462 0.126547 -0.417154 1.508023 1.145633 -0.435777 -0.860837 -1.884351
bg -1.557525 -1.093781 0.749523 -1.111623 -0.080802 -2.583051 1.172550 4.044907 1.860410 1.154341 -0.496483 0.580925 -2.979090 -4.087114 0.289332 -4.182519 0.244118 -1.623712 1.463708 0.155382
ce -1.499806 -0.859235 0.511003 -0.139732 2.076373 -2.333558 -2.837760 0.084106 2.979531 -1.638948 -0.112526 -0.789281 -1.450128 -3.618642 -0.579416 -3.655830 0.488670 1.077870 2.961770 -3.001463
mx 3.930000 6.440996 3.712889 0.092510 -0.375229 3.051380 -2.103235 -0.448782 -4.220339 -1.226658 -3.242693 3.059528 1.202410 7.795550 -0.311460 6.919339 -3.761107 -4.233575 6.339473 -3.351049
cu -4.097215 -1.382113 -1.065024 -1.647491 0.075477 0.045050 1.063812 2.644776 0.374905 0.965201 -0.193449 0.005492 -2.471785 -4.376749 2.136717 -1.403053 0.222779 -0.306322 2.489032 -1.219482
lh 1.449803 2.787288 -3.106754 2.057739 -1.363075 2.668210 0.523974 4.455537 2.071342 0.543532 -2.744944 1.085811 1.233243 6.197831 3.487644 2.500601 -2.837628 -2.052061 -1.534904 -2.669938
cv -3.860983 0.480645 0.380869 -3.011160 1.021769 -0.590932 2.222846 3.746279 2.180872 1.167941 -0.537564 -2.878693 -3.671775 -3.659185 1.929096 -4.609817 -1.480966 0.740268 -0.740598 0.193817
ud -0.591987 -0.533399 3.373191 0.693413 -1.147164 -0.798024 2.523444 0.867068 2.963002 -5.022804 1.510863 1.958548 -3.465122 -1.838599 0.814018 1.133023 2.128852 1.391313 -5.272676 3.594606
uz -4.456857 -0.431335 4.075583 -2.741770 0.186321 0.313619 3.340447 0.558860 4.109170 -0.982382 0.592341 0.904849 0.049193 -6.191714 3.126571 -5.014965 4.270717 -1.146006 1.864799 3.790670
cg -0.343528 0.381109 3.750137 -0.347593 -0.553731 -0.664273 1.548488 2.005681 1.401381 1.298349 -1.623386 0.604504 -1.304839 -3.031048 1.466907 -2.664468 -0.373748 -3.486584 -1.078444 0.538580
dp -1.500619 -0.143906 0.810080 -0.340340 1.407386 -0.927159 2.345101 2.451188 0.283407 -0.369294 0.979969 2.340613 -1.012919 -2.165326 -0.241811 0.615905 -1.146488 1.619639 -2.263417 -2.275799
ne 2.420261 1.648540 0.103208 1.795197 -0.190918 2.018370 -1.615180 1.726351 -4.557688 1.549820 -1.304604 -2.997987 1.924639 -0.662516 -2.237641 3.673686 0.214607 -1.315247 -0.654509 -1.435546
dx -1.171456 0.593861 0.534003 1.699790 2.752886 0.772037 0.973261 -1.776625 0.737026 -1.194125 2.838574 2.617644 -4.608139 -1.665430 -0.425884 -0.254497 0.485693 -2.140195 -2.495572 -2.162789
nz 4.931128 1.677375 3.685072 1.906019 0.069420 1.838295 0.799089 -3.065907 -1.618747 -0.542684 -0.959174 2.484241 0.271930 -0.479259 -1.123557 3.576039 3.101745 0.210801 0.796741 -2.097118
nx 5.889537 -0.359361 -0.541968 -1.560168 3.727581 3.232141 -7.307705 -1.238250 -4.440349 5.211707 -0.995892 -0.726405 4.261049 1.136885 -2.710696 3.797595 -1.258735 -1.464312 -4.259599 -5.436547
ub -4.539626 -1.359442 0.448017 -1.990898 2.129011 -1.483750 4.030246 2.357254 0.452538 1.107747 -1.330101 -2.127835 0.880365 -4.102717 -0.100744 -2.740059 0.545686 1.063671 2.105519 -1.368248
ng 7.581358 1.679675 0.297091 2.354470 2.313366 4.380475 -2.016858 1.458582 -0.508716 0.745947 0.977242 3.100652 3.873048 -1.674171 -1.630629 5.374647 -0.020459 0.930864 -1.167277 -2.835099
ad -3.762478 0.104503 -1.915997 -1.950908 0.273314 -3.549479 1.255064 2.901438 -2.273395 0.854221 3.310180 0.937925 -0.708026 -0.716757 1.780617 -1.699575 3.488326 0.022643 1.558034 -0.377971
ry -6.223856 1.384341 -1.176461 1.255935 2.126087 -0.242150 -0.153701 1.914829 0.302448 0.969648 0.059877 -2.174019 -0.305724 -4.780653 0.402252 -5.707048 1.753933 -0.109571 0.524730 1.912661
cc -2.061931 -1.934174 1.725543 0.459305 1.475416 -0.632532 0.604042 3.723875 3.260934 0.246475 -2.061929 1.804830 -1.282215 -1.079833 -2.975479 0.757648 4.740789 -2.004490 -0.283263 -1.829540
wu 2.479340 -1.442070 0.978365 3.837417 -5.364549 0.763187 2.645700 -1.714716 0.000139 0.775259 -3.700121 -0.507598 -0.481613 0.747164 -1.082813 0.943253 0.616532 5.417153 0.141005 -0.013286
qc 1.939148 8.396574 4.855421 2.214508 -2.897166 2.843816 -7.032478 -2.839155 -5.862057 -0.454669 -5.969613 3.120526 -1.959557 5.591544 3.071638 4.526347 1.379561 -2.029150 -2.247563 -0.367928
mg -1.161830 0.671216 0.147750 2.129253 -2.458167 -2.136847 2.218909 4.558234 0.191338 -0.063535 -1.515815 -0.284757 0.842084 1.198811 0.872628 0.516612 -2.556147 1.585372 0.518662 -0.647439
lg -0.164068 -0.880683 1.523988 0.458630 2.024709 -1.261279 -0.211125 -0.635948 2.193344 -2.917790 1.767033 1.458305 -4.479388 -3.283513 -0.781153 -0.875391 0.257978 -1.514103 -1.571595 -2.387094
cz -3.672571 -0.896667 -0.994706 -1.769764 0.245496 -0.887615 -0.060606 2.583991 1.075221 1.378079 -1.648097 -0.686633 -2.240771 -2.749216 2.628535 -3.916107 -0.251908 -0.820893 1.481269 0.934247
qg -6.143230 2.368403 2.831137 0.821970 -3.044902 -2.498365 2.222283 3.353562 -0.670709 -0.461821 -3.454368 0.590422 -0.444666 3.098043 1.010595 -0.390405 -2.928626 0.603129 3.059297 -0.014867
uu -1.480126 -0.993114 0.476855 0.264417 -0.533978 -0.311627 -0.227353 0.184220 2.463586 -1.206841 1.137798 0.761998 -2.832642 -3.556721 1.792407 -3.185088 -0.363062 -1.608474 0.216097 0.867864
by -0.341128 -1.492200 0.226395 -1.518798 2.111226 -1.894122 1.256426 -1.451005 -0.283691 -2.432579 2.581727 1.776794 -4.433423 -0.831835 -1.083959 -0.302691 0.753258 -2.106948 -3.005125 -1.815215
fh -2.825377 -0.261178 -1.095393 -1.278177 0.223184 -0.226507 0.103175 2.473609 0.466714 1.158573 -1.288939 -1.097682 -1.416041 -2.476314 1.553136 -3.495209 0.134448 -0.948274 1.025169 1.600051
hh 6.525832 4.380293 -2.327068 3.598783 -1.093132 -0.148363 2.002240 4.191902 -1.486599 0.073924 -4.324245 1.933780 3.492893 7.491395 3.921345 1.748675 -8.050544 0.806674 1.062251 3.070395
cm -1.623720 -0.316433 -0.017915 -1.289883 0.950402 0.566979 -1.250447 0.628906 -0.589629 0.681728 -0.327577 -2.879650 0.263582 -0.694212 -0.522299 -0.491542 0.665923 -1.317634 -0.596153 -1.186880
nm 0.902095 0.715398 1.958582 0.168626 -0.499297 -1.428389 1.338544 -0.434681 -0.714177 0.957885 -0.426919 -0.612192 -0.149472 0.931035 0.209031 -0.015683 2.091510 1.113355 0.832443 -1.602587
cb -0.945072 -0.071562 -0.713160 0.192300 -2.452497 -3.257044 1.749590 3.740562 0.636574 -0.340157 -1.666880 -0.803046 -1.206575 0.798223 0.979272 -1.794173 1.540073 1.059567 0.197398 0.210190
lt -0.104240 -1.445500 -1.726097 -0.224882 -1.728724 -0.010673 -1.841986 4.061128 0.808514 0.340794 -1.645808 -2.799499 0.321340 -0.662969 0.329909 0.419527 0.957591 -0.532772 0.600537 -0.430924
cp 3.170123 3.270957 -3.477295 2.293602 -3.180525 2.413556 -0.140382 3.665750 1.669573 -0.098682 -3.362807 0.844993 1.259824 6.054426 4.160436 0.887039 -3.440170 -0.423290 -1.514805 0.007775
cl -0.115560 -0.006959 0.005571 0.046302 0.522203 1.435788 -0.631743 -0.660517 0.978135 0.089022 -1.790600 -0.808863 -0.934936 0.050681 0.836822 -0.877137 0.280526 -0.111394 -1.853163 0.289224
qd 0.946360 -1.191170 0.962381 3.410414 -6.507547 -4.073256 1.611274 3.792590 -0.524736 0.008396 -2.422568 -0.869064 -0.288442 2.219857 1.447739 1.191918 -1.763678 2.439117 0.275400 0.683187
fj -4.327777 -0.653687 -3.116563 0.624572 0.562282 -0.154270 -0.934823 0.772181 -1.617817 0.498881 -1.830944 1.081789 -0.143091 -1.329066 -1.287216 -2.638425 1.495966 -0.201533 1.463861 0.529763
rf 1.052742 -0.571555 -0.858308 -1.281319 1.132731 2.163627 -1.879753 -1.253920 -0.912987 3.303467 -1.082181 -0.317749 2.068639 1.071432 -1.709516 -0.913994 0.821824 1.078630 -0.544394 -0.823305
cy -2.827455 -0.978669 -1.535539 0.108087 0.318338 0.957404 -0.792765 -0.228155 0.663892 0.336624 -2.583102 -1.839219 -1.838568 -3.068418 2.339515 -3.999806 -0.560766 -1.116938 0.804156 2.934612
dl -1.570797 -0.376902 -0.635225 -0.210459 0.555468 0.441240 -0.160560 0.372437 0.710571 -0.143295 0.043134 0.705833 -0.718530 -0.221093 0.096573 -0.926488 0.071628 0.942496 0.046482 0.186389
uq -1.776155 -1.152611 0.159083 -1.725093 0.367847 0.581764 0.769210 -0.155803 1.177098 1.081527 -0.035875 0.300269 -0.860682 -0.679550 0.511565 -1.900924 1.290346 1.238462 -0.210404 0.899719
xx -0.764806 -0.196186 -0.301518 0.577954 1.293974 0.916984 0.651648 -1.247014 0.152312 0.062401 1.529065 0.652671 -1.580277 -0.635079 -0.221692 -0.622947 0.533845 0.329142 -0.598935 -0.110658
ee -0.048169 -0.912520 -0.572149 0.065607 -0.558041 0.681600 0.184237 -0.703315 0.054202 1.074841 -1.094951 -0.790028 -0.019031 0.178058 0.540090 -1.398403 1.225608 1.314611 0.734053 2.127217
zt -1.795013 -0.897700 -0.261615 -0.344806 -0.249781 -0.176260 -0.017119 1.087991 0.635136 0.620131 0.435450 0.014715 -0.589475 -0.251832 0.190259 -0.705793 0.924153 1.422918 0.656293 0.539931
cs -1.907175 -0.991941 -2.174408 0.028770 1.797327 -1.463248 -1.019555 -0.629682 -0.464247 -0.481725 -2.817127 -2.780532 -1.376529 -0.428088 2.051118 -2.716966 -0.761369 -0.292055 1.497931 0.804096
no 0.910654 -0.154260 1.401828 -1.101555 -0.930407 -1.294851 0.464719 -0.917819 -0.183965 2.725490 -0.020487 -2.277302 -0.529665 1.353479 1.326213 -1.606497 3.552471 1.071094 0.315991 -0.532663
sk 0.965500 -0.817019 -0.207733 -0.522132 -0.415122 0.553944 -0.507487 -0.078627 0.134358 1.119012 -0.516101 -0.403081 0.691075 0.143814 0.014096 -0.593615 1.928905 1.725121 1.257375 1.183657
ql -0.276122 -0.533270 -0.436339 1.028548 -2.056851 -0.930139 0.950491 1.054751 -0.166232 0.668283 -0.942783 0.210039 -0.683483 0.647922 0.867221 -0.530319 0.058019 1.963409 1.128970 0.689300
cq 0.006307 -0.661924 -0.395430 0.239786 -0.378662 0.007823 0.008032 0.269607 0.008289 0.174133 -0.811453 -0.338557 -0.732048 0.052886 0.094445 -0.400676 0.787669 0.369680 0.597095 0.494902
ck -1.953953 -0.691321 -1.555722 0.439901 0.457641 -0.863460 -0.011457 0.327629 -0.490630 0.540888 -0.789343 0.136395 -0.560193 -0.122795 0.184605 -1.662254 1.061477 0.401931 0.911615 0.297290
cr 0.434400 -0.448871 -0.399882 0.922492 -1.825267 -0.354069 0.712070 0.706404 0.201549 0.168613 -1.487939 -0.266439 -0.287185 1.561635 1.139386 -0.199224 -0.105796 1.542094 0.314483 1.622605
ii 0.208367 -0.450223 -0.261155 0.138438 -0.576637 0.301073 0.073160 -0.401210 0.015548 0.758702 -0.777663 -0.499612 -0.374491 0.426633 0.330836 -1.053892 1.087270 1.078198 1.031159 1.368146
fz -0.926653 -0.802247 -0.872127 -0.038424 0.262064 0.080006 0.119534 0.097989 0.122529 0.363715 -0.763675 -0.232730 -0.369545 -0.250337 0.529645 -1.228411 0.345266 0.368494 1.073805 1.101389
cj 0.034242 -0.899763 -0.817958 -0.020043 -0.634980 0.323449 -0.214854 0.507355 -0.053292 0.248877 -0.072420 -0.299532 -0.312438 0.121810 0.144097 -0.183709 0.576962 0.819900 0.695882 1.074901
oo -0.358771 -0.683546 -0.441337 -0.000142 -0.225540 0.294603 0.110521 -0.006412 0.129749 0.545712 -0.300897 -0.225217 -0.348598 0.039073 0.186426 -0.877420 0.744206 0.980423 0.800194 1.260282
ba -0.709284 -0.759583 -0.690054 0.028111 0.157098 0.093239 0.202059 0.029015 0.068133 0.251350 -0.366008 -0.048238 -0.514527 0.043650 0.042047 -0.850148 0.519855 0.653742 0.919020 1.143817
bc -0.250689 -0.731405 -0.469165 0.056969 -0.059635 0.180767 0.219991 -0.019444 -0.011809 0.247590 -0.296437 -0.081407 -0.411222 0.041748 0.045003 -0.645723 0.461143 0.539259 0.877780 1.102886
ct -0.276235 -0.701746 -0.418242 0.049938 -0.087629 0.340454 0.159701 -0.075724 0.029116 0.252553 -0.273485 -0.028195 -0.382971 -0.015877 0.011069 -0.654336 0.343638 0.561120 0.793973 1.123628
w -0.160745 -0.616636 -0.424389 0.105725 -0.074324 0.326258 0.185320 -0.140530 -0.071010 0.240274 -0.286582 -0.024686 -0.300608 0.060930 -0.017838 -0.530829 0.400924 0.569191 0.736880 0.979538
ནན -0.247314 -0.586410 -0.536068 0.111833 -0.076721 0.269787 0.191426 -0.129033 0.000873 0.282309 -0.261589 -0.012457 -0.322810 0.001300 -0.055188 -0.441200 0.305049 0.513285 0.740292 1.173599
dy -0.315191 -0.513382 -0.590663 0.120786 -0.121211 0.172084 0.152933 -0.028455 0.119272 0.348616 -0.263368 0.047058 -0.417804 -0.176597 0.011597 -0.419709 0.333939 0.507483 0.764513 1.221931
cf -0.157733 -0.418418 -0.297384 0.040700 -0.017248 0.175015 0.113605 -0.063220 -0.032369 0.133517 -0.086176 -0.033620 -0.216619 0.013474 -0.012866 -0.321258 0.158412 0.278414 0.473685 0.604055
en -0.096971 -0.408549 -0.273711 0.044656 -0.051194 0.198444 0.102213 -0.088925 -0.040498 0.146343 -0.116743 -0.022347 -0.166352 0.042028 -0.017163 -0.313202 0.145252 0.261006 0.425954 0.591123
[ -0.109511 -0.134236 -0.252114 0.017290 -0.024564 -0.001455 0.058839 -0.112366 0.055515 0.141730 -0.115921 -0.012110 -0.157736 -0.048434 -0.012715 -0.093673 0.110979 0.159751 0.296959 0.443897
nzn -0.084994 -0.267585 -0.213989 0.022370 -0.002122 0.132598 0.078750 -0.092070 -0.034760 0.103842 -0.052316 -0.028789 -0.103622 0.052789 -0.048472 -0.224116 0.089896 0.180499 0.325156 0.429951
i -0.073044 -0.239700 -0.172261 0.040915 -0.019818 0.116298 0.086211 -0.052709 -0.013260 0.067761 -0.059991 -0.017240 -0.118180 0.041268 -0.025961 -0.190747 0.117385 0.177440 0.308255 0.380316
ca -0.060463 -0.213745 -0.198850 -0.024273 -0.024619 0.121266 0.036418 -0.120103 -0.020241 0.078055 -0.049079 -0.028551 -0.085400 0.036213 -0.025117 -0.184857 0.075916 0.187664 0.253697 0.359493
nw -0.036920 -0.178858 -0.133718 0.009809 -0.012617 0.096766 0.058894 -0.015373 -0.034728 0.033434 -0.040928 -0.023882 -0.046530 0.051638 0.002521 -0.143117 0.049474 0.132986 0.196751 0.273912
། -0.077648 -0.112887 -0.158533 0.013147 -0.044410 0.006199 0.062327 -0.085863 0.029555 0.104071 -0.035390 0.016357 -0.097012 -0.025475 -0.034042 -0.092748 0.079030 0.095797 0.210127 0.254303
nའ -0.053249 -0.165853 -0.101295 0.007098 -0.008806 0.058238 0.023792 -0.022201 -0.009364 0.046461 -0.026968 -0.009619 -0.072343 0.056205 -0.039482 -0.137347 0.060826 0.105276 0.191021 0.245988
hq -0.049873 -0.090535 -0.080016 0.027525 -0.000076 0.059041 0.027334 -0.038680 -0.021810 0.041877 -0.051495 -0.027789 -0.061630 0.017873 0.013243 -0.106000 0.035954 0.075035 0.140401 0.189970
10 -0.030892 -0.141173 -0.097001 0.015264 0.008161 0.085718 0.038410 -0.053762 -0.008856 0.048232 -0.019859 0.017247 -0.047967 0.050860 0.008450 -0.084757 0.053859 0.101423 0.140710 0.226138
